-5.298254605921306 7.635039772335739 -2.336785166414423 
-2.756129523002802 -9.275954139379069 12.032083662381837 
-0.7260859833456355 0.6758642395416842 0.050221743803951883 
2.7288460565294526 -5.4554788890232935 2.7266328324938454 
-3.9823531394838825 4.580237617901399 -0.5978844784174944 
-0.7394651271872386 -3.3202900599175837 4.059755187104846 
3.159281168084406 -1.398966375502035 -1.7603147925823581 
5.547365719001998 1.8681644560051098 -7.415530175007067 
-6.7539287521486875 -0.5666620939608555 7.320590846109576 
-1.1051074026784389 3.194879651262437 -2.0897722485839854 
19.598643117250592 -12.914658568493955 -6.683984548756642 
0.34872611679471177 -0.2702801955606047 -0.07844592123410958 
1.6625484391211416 -7.333435037926518 5.670886598805338 
1.8434241579662352 0.6854496920670052 -2.5288738500332504 
-1.2761173562881456 -0.49737246391282575 1.773489820200963 
0.19531416855224207 -3.215349941969315 3.0200357734170846 
0.08532862378751867 0.25033019046988103 -0.3356588142574005 
-0.5757054016754564 -1.8978806322260582 2.4735860339015194 
