0.023602411767073686 -0.007640528539738399 0.0 
0.0 0.0 0.0 
-0.010279616780326638 0.0 0.0 
0.03788938975980283 -0.01918861798994306 -0.018700771769859764 
0.0 -0.028534798304010154 0.0 
0.0 0.024887493257632915 0.0 
0.0 0.0 -0.019528239547287187 
0.019356939200381156 -0.0008133167731252562 -0.019356939200381156 
-0.006657171289270565 -0.0031973510851693748 -0.009555916947721206 
-0.017106132316615907 0.0 0.0 
0.0030075913346414547 -0.003099294234033579 -0.00040309558288621197 
0.0 0.0 0.0 
0.0 0.0 -0.005786777278435626 
0.0 0.0 0.0 
0.0 0.0 0.0 
0.061869843051685566 -0.030934921525842783 -0.030934921525842783 
0.0 0.0 0.0 
-0.01751342118129724 0.01751342118129724 0.0 
0.0 0.0 0.017653528550747616 
0.0 0.0 0.0 
0.0003233246987316401 -0.010508052708778342 0.0 
-0.0007615844931297498 -0.010852579027098944 0.0 
0.015540077949601775 0.0 0.0 
0.0 0.0 0.008295831085877638 
-0.012829599237461931 0.0 0.0 
-0.025076034873221045 0.025076034873221045 0.0 
0.016738491040531874 -0.002596873396125722 0.0013383402351834755 
0.012490704163264822 0.0 0.0 
0.0 0.0 0.0 
0.0 0.05053490997351417 -0.025267454986757084 
0.011412532980972284 -0.005231325505220317 -0.0060790387571444966 
-0.014910074789482785 0.01587547531542052 0.0 
-0.008008647134349439 0.00017214068130062875 0.009435305465306125 
0.0 0.0 0.0 
0.0 0.0 0.0 
0.0007295449438279103 0.0 0.0 
-0.006269008718305261 -0.007781797785230642 0.014050806503535903 
0.0 0.0 0.010852579027098944 
-0.010263679389969544 0.010263679389969544 0.0 
0.0 0.036474232542866976 0.0 
0.0 0.015114322389338712 -0.015114322389338712 
0.0 0.0 0.0 
0.0 0.01697454668341117 0.0 
0.0 0.0 0.0 
0.00813526661324775 0.0 0.0 
0.0 0.0 0.0 
0.0 0.036474232542866976 0.0 
0.008970288897737612 -0.008970288897737612 -0.008970288897737612 
0.0 0.0 0.0 
0.02878292698491459 0.0 0.0 
0.006874427005742841 -0.006874427005742841 -0.006874427005742841 
0.0 0.0 0.0 
0.0 0.0 0.0 
0.03152415812633503 0.0 0.0 
0.0 0.024518789653816136 0.0 
0.00919454612018105 0.0 -0.008826764275373808 
0.022159628800570798 -0.029316527195695177 -0.011716943728372311 
0.0 0.0 0.0 
0.0 0.0 0.0 
-0.02824710769745957 -0.02824710769745957 0.015613380204081028 
-0.026693843574719177 0.0 0.0 
0.0 0.025076034873221045 -0.025076034873221045 
0.0 0.0 0.0 
0.0 0.0 -0.027355674407150234 
-0.012259394826908066 0.0 0.0 
-0.010263679389969544 -0.010263679389969544 0.010263679389969544 
-0.0059045780886280595 -0.013981022804649919 0.00547871136250942 
0.0 -0.010508052708778342 -0.010942269762860092 
0.0 0.0 0.0 
0.008177751372723101 0.005572452194049122 -0.012081865376478183 
0.0074865829531273725 0.016652309688782743 -0.004675192942464941 
-0.021882325089043947 0.011126173456353538 0.012146923314734598 
-0.020769176521471956 0.030713320405297083 0.010425312136268277 
0.0 0.0 0.0 
0.0 0.0 -0.019528239547287187 
0.0 0.0 0.0 
0.013565723783873681 0.0 0.0 
0.023985772487428825 -0.023985772487428825 0.0 
0.0 0.029553898243439087 0.0 
0.0 0.0 0.0 
0.007417972802044373 -0.0037401543539719528 0.0 
-0.027355674407150234 0.0 0.0 
0.0 0.0 0.0 
0.0 -0.01587547531542052 0.0 
-0.010263679389969544 0.010263679389969544 0.0 
0.0 0.0 0.0 
0.03310036603265178 -0.03310036603265178 0.0 
0.0 0.0 0.0 
-0.023147109113742504 0.04629421822748501 0.0 
0.0 0.0 0.0 
0.011716943728372311 -0.011716943728372311 -0.011716943728372311 
0.015140316723073305 -0.007388474560859773 0.0 
0.0 -0.006838918601787558 0.006838918601787558 
0.0 -0.019023198869340105 0.0 
-0.015324243533635082 0.0 0.015324243533635082 
0.0 0.05410797965460874 -0.019356939200381156 
-0.016107234079149286 0.0 -0.016107234079149286 
0.0 -0.02878292698491459 0.0 
-0.00334193603076865 -0.016393622981377847 -0.00019728904034338468 
0.0 0.0 0.0 
0.0 0.0 0.0 
0.0 0.0 0.0 
-0.026063280340670694 0.0 0.026063280340670694 
0.0 0.05092364005023351 0.0 
0.0024028118108237557 -0.00012583188600927037 0.0006894454429628412 
0.027815433640883847 0.0 0.0 
0.023318070750822904 0.0022928231968258224 -0.002724309961535126 
0.0 0.0 0.0 
-0.025859660963009203 0.0 0.025859660963009203 
0.0 0.0 0.0 
-0.0069538584102209625 0.0 0.0 
0.001878377510835619 0.0008381207180306483 -7.951462207725899e-05 
-0.004839234800095289 -0.008422484995585695 0.008422484995585695 
0.0 0.0 0.0 
0.007876785181806584 -0.00421382600983999 -0.01230592004446749 
0.0 -0.006895909590135787 0.006895909590135787 
0.0 0.0 0.0 
-0.019470803548618694 0.019470803548618694 0.0 
0.0 0.0 0.0 
0.00774125867864773 -0.0029256457591261263 -0.00023228327040457353 
0.0 0.0 0.0 
0.0 0.0 0.0 
0.0 -0.004226178100352761 0.0 
0.0 0.0 -0.0014145455569509312 
0.0 0.0 0.0 
0.0 0.0 0.0 
0.022226105937574167 -0.009735401774309347 -0.009735401774309347 
0.02878292698491459 0.0 0.0 
0.030091241847865255 0.0 0.0 
-0.004086464942302689 0.01733328691919428 -0.004086464942302689 
0.0 -0.020244872191224332 0.0 
0.0 0.0 0.0 
0.0 0.0 0.0 
0.0 0.0 0.0 
0.0 0.0 0.0 
0.00032242709948034076 -0.00032242709948034076 -0.018700771769859764 
-0.024160851118723927 0.0 -0.024160851118723927 
0.0 -0.013391593157496398 0.012633520542545686 
-0.007815906973471495 0.014400509936126875 6.406481125796268e-05 
0.0 0.0 0.0 
0.0 0.0 0.0 
0.0 0.0 0.0 
0.0 0.0 0.0 
0.0 0.0 0.0 
0.0 0.0 0.0 
0.0 0.0 0.0 
0.0 0.0 0.0 
0.0 0.0 0.0 
0.008014616472797042 -0.015703435528000707 0.007688819055203667 
-0.008164212695054398 0.027688263952879343 -0.010442192446990486 
0.006509413182429062 -0.013136113088865855 -0.006509413182429062 
0.0 0.028290911139018618 -0.028290911139018618 
0.018700771769859764 0.0 0.0 
0.0370872448545118 -0.0185436224272559 0.0 
0.0 0.0 0.0 
-0.0022041015936974254 0.0003130651843615028 -0.0001004838641423632 
0.0 0.0 0.0 
-0.019023198869340105 0.0 0.0370872448545118 
0.0 0.0 0.0 
0.0 0.0 0.0 
0.020060827898576834 0.0 -0.020060827898576834 
0.055167276721086296 0.0 0.0 
0.0 0.0 0.0 
0.0 -0.014910074789482784 0.014145455569509309 
0.0 0.0 0.0 
-0.022365112184224177 0.0 0.0 
0.0 0.0 0.017653528550747616 
0.0 0.05092364005023351 0.0 
0.0 0.0 0.0 
0.01758068009910873 -0.020773698450917477 -0.010444683035320037 
0.02929235932093078 -0.02929235932093078 0.0 
0.0 0.0 0.021100169839226912 
0.0 0.0 0.0 
0.0 0.0 0.0 
-0.025859660963009203 0.025859660963009203 0.0 
0.0 0.022671483584008067 -0.022671483584008067 
0.001437799914543146 -0.016214749036262688 0.0 
0.0 0.0 -0.027815433640883847 
0.0 0.0 0.0 
-0.012929830481504602 0.012929830481504602 0.0 
0.0 0.0 0.007751842162213533 
0.0 0.0 0.0 
0.0 0.0 0.0 
0.0 0.0 0.0 
0.0 0.023985772487428825 0.0 
0.0 0.0066486088016980615 -0.0002338091829670961 
0.0 0.0 0.02929235932093078 
-0.01723977397533947 0.01723977397533947 0.0 
0.025461820025116755 0.012538017436610522 -0.012538017436610522 
0.0 0.0 0.0 
0.026910866693212833 -0.026910866693212833 0.0 
-0.010030413949288419 0.010030413949288419 0.0 
0.0 0.0 -0.01465494248184894 
-0.007315169468129344 0.005410797456182461 -0.006129697413454034 
-0.013565723783873681 0.0 0.015045620923932627 
-0.012829599237461931 0.012829599237461931 0.0 
0.0 -0.009093507151827412 0.0 
0.0 0.0 0.0 
0.004740098091146786 -0.003444850916869938 -0.002026680020900575 
-0.018455610197501873 -0.00014065235325522044 0.0 
-0.009678469600190578 -0.008687760113556897 0.03706700148360724 
0.0 0.0 0.0 
-0.031681307468938893 0.01298053569907913 0.0 
0.0 0.0 0.0 
0.0 0.0 0.0 
0.0 0.0 0.0 
0.0 0.012538017436610522 -0.012538017436610522 
0.0 0.0 0.0 
0.0 -0.029820149578965567 0.0 
0.0 0.0 -0.030091241847865255 
0.0 0.0 0.0 
0.041635680544216076 0.0 0.0 
0.055167276721086296 0.0 0.0 
0.0 0.0 0.025461820025116755 
0.0 0.0 0.0 
0.0 0.0 0.0 
0.0 0.0 -0.016107234079149286 
0.0 0.0 0.0 
0.0 0.0 0.0 
0.0 0.024887493257632915 0.0 
-0.0005540737534759244 -0.008856954939166444 0.004466985969318728 
0.0 0.0 0.0 
0.0 0.0 0.0 
0.0 0.030091241847865255 0.0 
0.014517704400285868 0.06477643758756708 -0.03245133924769782 
-5.95732122072477e-05 0.003763312078294335 0.0001826183258931773 
0.0 0.0 0.0 
-0.012829599237461931 0.0011959795899328905 -0.0011959795899328905 
-0.014517704400285868 0.0 0.0008398671967107512 
-0.012829599237461931 0.0364727178322132 0.0 
-0.010514837638247463 0.016570225308000956 -0.002565919847492386 
0.0 0.0071107123593236905 0.0 
0.0 0.024887493257632915 0.0 
0.010409681411570443 -0.019528239547287187 -0.019528239547287187 
0.0 0.0 0.0 
-1.7110224770256637e-05 -0.0061965639435195155 -0.0028152935574454674 
0.0 0.0 0.0 
0.05706959660802031 0.0 -0.028534798304010154 
-0.013031640170335347 0.013031640170335347 -0.013031640170335347 
-0.004701756538728946 0.027578881631018244 -0.0045940827248649235 
0.0 0.025461820025116755 0.0 
0.020060827898576834 -0.020060827898576834 0.0 
-0.010425312136268277 0.010425312136268277 -0.010425312136268277 
0.0 0.01697454668341117 0.0 
0.0 -0.027815433640883847 0.0 
0.0 0.0 0.0 
0.0 0.012730910012558378 0.0 
-0.0010980429449155655 -0.00017744858898669663 -0.002394609510291313 
0.0 0.0 0.0 
0.0 -0.030648487067270164 -0.030648487067270164 
-0.0069614049253436255 3.44985169329397e-05 0.004305744032681004 
-0.003850844877474437 -0.008487862776620628 0.012228036167460248 
-0.013031640170335347 0.013907716820441923 0.0 
-0.011928059831586226 0.0 0.0 
0.0 0.0 0.0 
0.0 0.0 0.0 
0.0 0.0 0.0 
0.0 0.0 0.010942269762860092 
0.0 0.0 0.0 
0.0 0.0 0.0 
0.06245352081632411 0.0 0.0 
0.0 0.0 0.0 
0.020432324711513444 -0.010216162355756722 -0.009118558135716744 
0.0 0.0 0.0 
-0.012829599237461931 0.012829599237461931 0.0 
0.0 0.007629973004159567 -0.003772121485202482 
0.0 0.0 0.0 
0.0 -0.013455433346606416 0.0 
0.0 0.0 0.0 
-0.01779589571647945 0.036474232542866976 0.0 
0.0 -0.028534798304010154 0.0 
0.0 0.0 0.0 
0.0 0.0 0.0 
0.0 0.0 0.0 
-0.013677837203575117 0.013677837203575117 0.0 
0.0 -0.005426289513549472 -0.0009391654927297169 
0.0 0.0 0.0 
-0.00733119956426396 0.022708837674671294 0.0 
0.0 0.0 0.0 
0.011144904388098243 -0.011144904388098243 0.0 
0.0 -0.006673460893679794 -0.00030800588740060534 
0.0 -0.017106132316615907 0.0 
0.0 0.06490267849539565 -0.03245133924769782 
0.0 0.0 0.0 
0.0 0.0 0.0 
0.016058064575469603 -0.008369245520265937 -0.007688819055203667 
0.008970288897737612 -0.008970288897737612 -0.008970288897737612 
0.0 0.0 0.0 
0.0 0.0 0.0 
0.01495514881376191 -0.01863405169638704 0.0 
0.0 0.0 -0.013907716820441923 
-0.025859660963009203 0.025859660963009203 0.0 
0.012730910012558378 0.0 -0.012730910012558378 
0.0006897633998635445 0.0 0.0 
0.011621445127451408 0.0027623774224824044 -0.007816805353583388 
0.0 -0.00927181121362795 0.0 
-0.012829599237461931 0.0 0.012829599237461931 
0.0 0.0 0.0 
0.0 0.0 0.0 
0.0 0.0 0.0 
0.0 0.0 0.010184728010046702 
0.0 -0.030648487067270164 -0.030648487067270164 
0.028534798304010154 -0.028534798304010154 0.0 
0.0 0.0 0.0 
-0.002423130837117732 -0.00475399290250691 0.010898554591961068 
-0.005131839694984772 0.015475704080188453 0.0 
0.026910866693212833 0.0 -0.026910866693212833 
0.0 0.0 0.0 
0.0 0.0 0.0 
-0.0037275186973706963 0.03260601544736664 -0.009821938678969876 
0.01592174822596464 -0.007959368424530322 -0.0034212264633231813 
-0.00798334713137661 -0.012122061465962014 0.016289060728439102 
0.0 -0.030367308286836498 0.0 
0.0 0.0 0.0 
0.0 -0.013455433346606416 0.013455433346606416 
0.0 0.0 0.0 
-0.009557055106998225 -0.0001482692379791324 0.018604994608919415 
0.010343864385203681 -0.010343864385203681 -0.010942269762860092 
0.0 -0.030091241847865255 0.0 
0.0 0.0 0.0 
0.0 0.0 0.021016105417556684 
0.0 0.0 0.0 
0.0 0.0 0.0 
0.03310036603265178 -0.03310036603265178 0.0 
0.0 0.0 0.0 
0.0 0.0 0.0 
0.0 0.0 0.0 
0.0 0.025659198474923862 -0.025659198474923862 
-0.025461820025116755 0.0 0.0 
0.0 0.0 0.0 
0.0 0.0 0.0 
-0.007606681963042471 0.01938330734360946 -0.013371208678190694 
0.005624531186516869 0.014002764145388289 -0.009408681420523365 
-0.01684496999117139 -0.01684496999117139 0.0 
-0.01697454668341117 0.020060827898576834 0.0 
0.0014405309269444944 0.00573736313725827 9.310483811452233e-05 
0.0 0.01587547531542052 0.0 
-0.00386667711168163 -0.0006121264471221058 0.0017422591515558164 
-0.021884373854242425 0.008573751021103394 0.017832530761096928 
0.0 0.0 0.0 
0.011413919321604061 -0.011413919321604061 0.0 
0.0 0.0 0.0 
0.0 0.0 0.0 
0.0 0.0 0.0 
0.019023198869340105 -0.019023198869340105 0.0 
0.0 0.03469128676147898 -0.018700771769859764 
0.0010956078043038338 0.0 -0.017940577795475223 
0.0 0.0 -0.019528239547287187 
-0.022365112184224177 0.0 0.0 
0.0 -0.017940577795475223 0.0 
0.0 0.0 0.0 
0.0 0.039405197657918785 0.0 
0.0 0.0 0.0 
-0.026063280340670694 0.026063280340670694 -0.026063280340670694 
-0.027355674407150234 0.027355674407150234 -0.027355674407150234 
-0.009430303713006205 -0.009430303713006205 0.009430303713006205 
0.0 0.0 0.0 
0.0 0.027815433640883847 0.0 
0.0 0.016717356582147364 -0.016717356582147364 
-0.009194546120181049 0.0 -0.010852579027098944 
-0.006452313066793719 -0.012321258888271775 0.006452313066793719 
0.0 0.0 0.0 
-0.01587391092092747 0.02629922305719575 -0.005610231530957929 
-0.05053490997351417 0.0 0.0 
0.004715840803296865 -0.014146144516303069 0.004715151856503103 
0.0 0.0 0.0 
0.02878292698491459 0.0 0.0 
0.0 0.0 0.0 
-0.007455037394741392 0.0 0.01429395599652895 
0.0 0.014517704400285868 -0.014517704400285868 
0.0 0.0 0.0 
0.011913720087526398 0.011401214740031959 -0.005702044105538636 
0.0 0.0 0.0 
0.0 0.0 0.0 
0.0 0.0 0.0 
0.0 0.0 0.0 
0.029820149578965567 -0.029820149578965567 0.0 
0.011716943728372311 -0.002648350294769085 -0.009068593433603226 
0.0 0.0 0.0 
0.017375520227113795 0.04086464942302689 -0.017375520227113795 
0.0 0.0 -0.024160851118723927 
0.0 -0.026270131771945857 0.0 
0.0 0.0 0.0 
0.0 0.027815433640883847 0.0 
-0.012829599237461931 0.0 0.0 
0.0 0.017653528550747616 -0.017653528550747616 
0.0 0.0 0.0 
0.0 0.0 0.027355674407150234 
0.0 0.025076034873221045 0.0 
0.0 0.0 0.0 
-0.013677837203575117 0.013677837203575117 0.0 
0.0 0.027815433640883847 0.0 
0.0 0.0 0.0 
0.023310116924402664 0.0 0.0 
0.0 0.0 0.0 
0.0 0.0 0.0 
0.0 0.02364311859475127 0.0 
0.05706959660802031 0.0 -0.028534798304010154 
-0.008687760113556897 0.0 0.008687760113556897 
-0.027526291919045136 0.027526291919045136 0.0 
0.030091241847865255 -0.030091241847865255 0.0 
0.0 0.0 0.0 
0.0 0.0 0.0 
0.0 0.0 0.0 
0.0 0.027815433640883847 0.0 
0.0 0.0 0.013677837203575117 
-0.03372516916668725 0.0070727277847546545 -0.0070727277847546545 
0.0 0.0 0.0 
0.009896317506116113 -0.009751066137582571 -0.004693714566512781 
0.0 -0.013455433346606416 0.0 
0.0 0.0 0.0 
0.0 0.0 0.0 
-0.013677837203575117 0.0 0.0 
0.0 0.05053490997351417 -0.025267454986757084 
0.0 0.0 0.0 
0.0 0.0 0.0 
-0.0034291879781974824 -0.0006914786645419925 0.005145468719816919 
-0.019702598828959392 0.0 0.019702598828959392 
-0.006953858410220962 0.0 0.006895909590135787 
0.0 0.016591662171755277 0.0 
0.0 0.0 0.027583638360543148 
-0.007173227524513116 0.0 0.0 
-0.019470803548618694 0.019470803548618694 0.0 
0.0 0.0 0.0 
0.0 0.0 0.0 
0.0 -0.011906606486565389 0.01464617966046539 
0.0 -0.030091241847865255 0.0 
0.0 0.0 0.0 
-0.010122436095612166 -0.00919454612018105 0.010122436095612166 
-0.01298053569907913 -0.0058800717269332815 0.0 
-0.0002481075976328337 -0.00027901198025734146 0.003145770882267825 
-0.003440786489880643 -0.004174068856576518 0.0 
0.027583638360543148 0.0 -0.027583638360543148 
0.004090611262931431 -0.002359832886429003 -0.00027173692088956205 
0.0 0.0 0.0 
-0.028406780373765907 0.046777816938347205 -0.015160982827707739 
0.0 0.049037579307632265 -0.016345859769210755 
0.0026583157023928566 0.00781607043849452 -0.005824818323838143 
0.0 0.0 0.0 
0.0 0.0 0.0 
-0.008083117468291033 0.029797310303563765 -0.007164581392348871 
0.0 0.0 0.0 
0.001303061993226846 8.143014533031285e-05 0.001160117726752511 
0.0 0.0 0.0 
0.0 0.0 0.0 
0.0 -0.020244872191224332 0.020244872191224332 
0.0 0.0 0.0 
-0.002279639533929186 -0.0032382340246246526 0.0051952459014054965 
-0.00775789828890276 0.03728301781831463 -0.019381274475182602 
0.0 0.0 0.0 
-0.019470803548618694 0.019470803548618694 0.0 
0.0 0.0 0.0 
0.0 0.0 0.0 
0.0 0.0 0.0 
-0.016029232945594083 0.006567532942986464 0.0 
0.0 0.0 0.0 
0.0 0.011335741792004033 -0.011335741792004033 
0.0 0.0 0.0 
0.0 -0.005521328779424817 0.005521328779424817 
0.0 0.0 0.0 
0.0 0.0 0.0 
0.0 0.030639276125673943 -0.010106981994702833 
-0.02029409333925796 0.02029409333925796 -0.010263679389969544 
0.0 0.0 0.0 
0.0 0.0 0.0 
0.00016931357018361813 -0.005702044105538636 -0.0006390221842413986 
-0.0007208053787597529 -0.004449604512490133 0.0009535043796307715 
0.0 0.025076034873221045 -0.025076034873221045 
-0.009043815855915788 0.0 0.0 
0.0 0.0 0.0 
0.0 -0.026270131771945857 0.0 
0.0 0.0 0.0 
0.0 0.0 0.0 
0.005471134881430045 -0.004860812290029731 -0.005471134881430045 
-0.0029857104895015495 -0.0018950562049365794 -0.0005506534028757778 
0.0 0.0 0.0 
0.0 0.0 0.0 
-0.0070727277847546545 0.020124598394996758 -0.006269008718305261 
0.0037060749635636926 -0.008441608381475577 0.004163568054421607 
0.0 0.0 0.0 
0.0 0.0 0.0 
0.013055634481494808 -0.006686942632858945 0.0 
0.0 0.036474232542866976 0.0 
-0.004462469299986759 0.022717921450092885 -0.011873119856032212 
0.0 0.017653528550747616 -0.017653528550747616 
0.0049088713384074015 0.0 -0.016107234079149286 
0.0 0.0 -0.026480292826121424 
0.009536840619006504 0.007815906973471495 0.0 
0.0 0.0 0.0 
0.0 -0.028290911139018618 0.0 
0.0 -0.0013992408550597144 -0.003415357840598726 
0.0 0.028290911139018618 -0.028290911139018618 
0.0 0.0 0.0 
-0.007422933971186084 -0.01892951822935359 0.013137678153648994 
0.0004559279067858366 0.004559279067858372 -0.009940451445379965 
0.0 0.0 0.0185436224272559 
0.026063280340670694 0.0 -0.013031640170335347 
0.0 0.0 0.0 
0.00919454612018105 0.0 0.0 
0.055167276721086296 0.0 0.0 
0.0 -0.02062328101722852 0.02062328101722852 
-0.025859660963009203 0.025859660963009203 0.0 
0.005837807060432413 0.006122578136551069 0.0 
0.0 0.0 0.0 
-0.022365112184224177 0.0 0.0 
-0.009511599434670052 -0.009511599434670052 0.018268310025318674 
0.0009683424568902727 -0.0009683424568902727 -0.01464617966046539 
-0.021286134148063775 0.021286134148063775 0.0 
-0.013677837203575117 0.013677837203575117 0.0 
0.0058845095169158725 -0.006686942632858945 0.007143499405723107 
0.006686942632858945 0.01168739279841425 0.0 
0.0012902545521142434 -0.0020893472893165595 -0.003428199362077948 
-0.026270131771945857 0.026270131771945857 0.0 
0.0 0.0 0.0 
0.0 0.0 -0.026480292826121424 
0.0 0.0 0.0 
0.0 0.0 0.0 
0.0 0.0 0.0 
0.03343471316429473 -0.03343471316429473 0.0 
0.0 0.01622566962384891 0.0 
0.0 0.0 0.0 
0.01349658146081622 0.0 0.0 
-0.007388474560859773 0.007388474560859773 0.01696674319108458 
0.0 0.03152415812633503 0.0 
0.027583638360543148 0.0 0.0 
0.0 0.01799344121228375 -0.01059211713044857 
0.0 0.0 0.0 
0.0 0.0 0.0 
0.0 0.0 0.0 
-0.0023932228109647107 -0.004957523233138409 0.004442979788252738 
0.0 0.0 0.0 
0.0 0.014452019998424808 0.0 
0.0 0.016591662171755277 0.0 
0.017352747592478 0.0006921287644833501 -0.008443970926696883 
-0.011087594932030851 0.001990794256990599 -0.0034461599201095036 
-0.014548657249082225 -0.020566464385168782 0.03053505228210968 
0.0 0.0 0.0 
-0.024160851118723927 0.0 -0.024160851118723927 
0.014250527135269522 -0.013623626263438996 -0.007522810461966314 
0.0007008038201357543 -0.0007008038201357543 -0.017940577795475223 
0.031226760408162055 0.0 0.0 
0.0 0.0 0.0 
-0.014776949121719543 -0.014776949121719543 -0.0005472944119155384 
0.01464617966046539 -0.01464617966046539 0.0 
0.011328126116986787 0.01297063384743409 -0.007259828180270685 
0.0 0.0 0.0 
0.0 0.0 0.0 
-0.023147109113742504 0.04629421822748501 0.0 
0.0 0.0 0.0 
0.0 0.025659198474923862 -0.025659198474923862 
-0.013346921787359588 0.0 0.0 
0.0 0.0 -0.00437835529532431 
-0.012829599237461931 0.012829599237461931 0.0 
0.0 0.022986365300452623 0.0 
0.0 0.0 0.0 
0.0 0.0 0.0 
0.0 0.0 0.0 
0.0 0.0 0.0 
0.0 -0.017940577795475223 0.0 
0.0 0.0 0.0 
0.0 0.028051157654789643 -0.028051157654789643 
0.0 0.0 0.0 
0.026910866693212833 -0.026910866693212833 0.0 
0.0 0.0 0.0 
0.0 0.0 0.0 
0.0 0.0 0.0 
0.0 0.0 0.0 
0.0 0.01723977397533947 -0.01723977397533947 
0.0 0.0 0.0 
0.0038994995717661213 0.0013044993432701736 -0.003446790894553928 
0.0 0.0 0.0 
-0.059107796486878174 0.0 0.059107796486878174 
0.012490704163264822 0.0 0.0 
0.008256006918143918 -0.010557172399263506 -0.010994516618801829 
0.007751842162213533 0.0 -0.007815906973471495 
0.0 0.06562924147938755 -0.04903757930763227 
0.0 0.0 0.0 
-0.1298053569907913 0.11061673900084823 0.0 
0.0 0.02558482398659075 0.0 
0.0 0.0 0.0 
0.0 0.0 0.0 
-0.010343864385203681 0.03152809864610082 -0.02118423426089714 
0.0 0.0 0.0 
0.0 0.013565723783873681 0.0 
0.00047926663818104957 0.007668941336210921 -0.008455872224690818 
-0.002474722558226783 0.006659302194166329 -0.008815244752350817 
0.0 0.016591662171755277 0.0 
0.0 0.0 0.0 
-0.03221446815829857 0.04977498651526583 -0.03221446815829857 
0.0 0.0 0.0 
0.0 0.0 0.0 
0.0008682104013268911 0.002913385365647194 0.00429643170628521 
0.0 0.0 0.0 
0.003821024471438882 -0.00995016364411221 -0.0001998031921931877 
-0.012829599237461931 0.05099879300190151 0.0 
-0.013851708015484968 0.013368658028951926 0.007436908396754004 
0.0 0.0 0.0 
0.023910816161027117 -0.01275432349524216 -0.003591914265436969 
0.0 0.0 0.0 
0.01176705050508889 -0.004115052505949577 -0.0027025723815980326 
-0.006269008718305261 -0.0005699098834822973 -0.006620073206530356 
0.0 0.0 0.0 
0.04858769325893839 0.0 0.0 
0.0 0.0 0.0 
0.0 0.0 0.025461820025116755 
0.0 0.0 0.0 
0.0 0.0 0.0 
0.009735401774309347 -0.009735401774309347 -0.009735401774309347 
0.0 0.0 0.0 
0.014910074789482784 -0.014910074789482784 0.0 
0.0 0.012829599237461931 0.012730910012558378 
0.0 0.0 0.0 
0.0 0.021016105417556687 -0.007005368472518896 
-0.023147109113742504 0.04629421822748501 0.0 
0.0 0.0 0.0 
-0.0064147996187309654 0.0 0.0 
-0.00733119956426396 0.014438545706718334 -0.014122373172994574 
-0.01723977397533947 0.01723977397533947 -0.020432324711513444 
0.0 0.0 0.0 
0.0 -0.006727716673303208 0.0 
0.0 0.0 0.0 
0.0 -0.028290911139018618 0.0 
0.0034942088651536995 0.0 0.006357388210731849 
0.0 -0.01684496999117139 0.01684496999117139 
0.0 0.0 0.0 
-0.025659198474923862 0.025659198474923862 -0.025659198474923862 
0.0 0.0 0.0 
0.0 -0.020244872191224332 0.0 
0.0 0.0 0.0 
0.0 0.0 0.0 
0.010184210447954173 -0.003961684740412422 -0.006589524282242803 
0.0 0.025659198474923862 0.0 
0.0 0.0 0.0 
-0.0001112467770136849 0.005683698971062806 -0.01202476526084284 
0.0 0.0 0.0 
0.0 0.0 0.0 
0.0 0.011493182650226311 0.0 
0.0 0.0 -0.024160851118723927 
0.0 0.0 0.0 
-0.012080425559361964 0.0 -0.012080425559361964 
0.016467843797339194 -0.03455547550917077 0.0 
-0.05212656068134139 0.05212656068134139 -0.05212656068134139 
0.0 0.0 0.0 
0.0070576473417167974 -0.0070576473417167974 -0.007815906973471495 
-0.003976019943862076 -0.0004751309232885444 0.007623443198148774 
-0.014907545034771569 -0.009559008822650364 0.009377264464548795 
0.0 0.0 0.0 
-0.025267454986757084 -0.025267454986757084 0.0 
-0.028290911139018618 0.0 0.0 
0.0 0.0 0.0 
0.0 0.007717389530381473 0.0010450631655724903 
7.151578522308303e-05 -0.012484336669078208 -0.004147915542938819 
-0.028051157654789643 0.0 0.028051157654789643 
0.0 0.009350385884929882 -0.0005936752942812627 
0.0 0.0 0.0 
0.010695404176495872 0.0 0.018879146686260784 
0.009771006691979235 -0.01436827975206976 -0.005015206974644209 
0.0 0.0 0.0 
0.0 -0.026910866693212833 0.026910866693212833 
0.0002103212989747862 -0.00041079997558375603 0.00011729919302822358 
-0.019356939200381156 0.0 -0.0001713003469060309 
0.0 0.0 0.0 
0.0 0.0 0.0 
0.0 0.0 0.0 
-0.028534798304010154 0.0 0.0 
-0.004559606156827807 -0.007763367424182945 0.013395978817424522 
0.0 0.0 0.0 
0.034904370885802186 -0.022156687605770085 -0.009258843645497 
-0.01199553534282904 -0.00025592107115888574 0.014940409687067193 
0.0 0.0 0.0 
-0.01723977397533947 0.01723977397533947 0.0 
0.0 0.0 0.0 
0.0 0.027131447567747363 0.0 
0.0 0.0 0.0 
0.0 0.024887493257632915 0.0 
-0.006174632448014446 0.0019730376046857376 0.01153251648207944 
0.0 -0.027131447567747363 0.0 
0.0 0.016345859769210755 0.0 
0.0 0.0 0.0 
0.0 0.0 0.0 
0.0 0.024887493257632915 0.0 
0.0 0.0 0.0 
0.0 0.0 0.0 
0.0 0.022986365300452623 0.0 
0.0 0.0 0.0 
0.01751342118129724 -0.01751342118129724 0.0 
0.00010616875684544896 -0.011492598314439075 -0.0026943724894303443 
0.0 0.0 0.0 
0.026693843574719177 0.0 0.0 
0.0 0.0 0.011126173456353538 
0.0 -0.012633727493378542 0.012633727493378542 
0.0 0.0 0.0 
-0.012730910012558378 0.012538017436610522 0.0 
0.001555550994834275 -0.0040049073181983455 -0.002780115202002122 
-0.019356939200381156 0.0 0.0 
0.028534798304010154 -0.028534798304010154 0.0 
-0.014391463492457296 0.0 0.0007136262888821788 
0.0 0.0 0.0 
-0.01886060742601241 0.0 0.0 
0.028534798304010154 -0.028534798304010154 0.0 
-0.012633727493378542 0.0 0.013240146413060712 
0.0 0.0 0.0 
0.0 0.022671483584008067 -0.022671483584008067 
0.0 0.0 0.0 
-0.020817840272108038 -0.020817840272108038 0.020817840272108038 
0.0 0.0 0.0 
-0.006853077853551093 0.018700771769859764 -0.018700771769859764 
-0.004142657067345425 -0.006694795765721963 0.002942136055955398 
-0.023447720920414486 0.031013518870734894 -0.007565797950320407 
0.0 0.0 0.0 
-0.021450322471638434 0.010942269762860092 -0.010942269762860092 
0.0 0.0 0.0 
0.0 0.0 0.0 
0.0 0.0 0.0 
-0.031226760408162055 -0.031226760408162055 0.031226760408162055 
0.0 0.0 0.0 
0.0 0.0 -0.021218183354263963 
0.0 0.0 0.0 
0.0 0.0 0.0 
-0.013701232518989002 0.0 0.0 
-0.017106132316615907 0.017106132316615907 0.0 
-0.01723977397533947 0.033585633744550224 0.0 
0.0 0.0 0.0 
0.006326715238487828 -0.008510517081932232 -0.0013568130124552576 
0.0 0.010746872088523304 0.004973758983118224 
0.0 0.0 0.0 
0.0 0.0 0.0 
0.009350385884929882 0.0 0.0 
0.0 0.0 0.0 
0.0 0.0 0.0 
0.029820149578965567 -0.029820149578965567 0.0 
0.00683376310993618 -0.008455267905654078 0.01182283825093531 
0.0 0.0 0.0 
0.0 0.0 0.0 
0.0 0.020369456020093404 0.0 
-0.006810774903837815 0.0 0.01283998547444834 
0.0 0.0 0.0 
0.0 0.0 0.0 
0.0 0.0 0.0 
0.0 0.0 0.0 
0.007195731746228648 0.024455286790754177 -0.006316863746689271 
0.0 0.0 0.0 
-0.026693843574719177 0.0 0.0 
-0.00911980236450201 0.0039410158640203335 0.0004591714536751248 
0.018474706734987655 -0.009552775189798494 -0.008921931545189159 
0.011220463061915858 0.0015071815255258605 -0.012727644587441718 
0.0 0.0 0.0 
-0.012829599237461931 -0.012829599237461931 0.026855178064856752 
0.0 0.0 0.0 
0.0060182483695730505 -0.011412230372311134 -0.011357017084516885 
0.0 0.016591662171755277 0.0 
0.013031640170335347 0.0 0.0 
9.857460327184191e-05 0.004041558734145517 -0.004140133337417359 
0.02878292698491459 0.0 0.0 
0.0 -0.013455433346606416 0.013455433346606416 
-0.019470803548618694 0.019470803548618694 0.0 
0.0 0.0 0.0 
-0.014910074789482785 0.03394909336682234 0.0 
-0.01697454668341117 0.0 0.0 
0.0 0.0 0.027583638360543148 
-0.010942269762860092 0.010942269762860092 -0.010942269762860092 
0.0 0.0 0.0 
-0.025461820025116755 0.0 0.0 
0.026480292826121424 0.0 -0.026480292826121424 
0.0 0.0 0.0 
0.026910866693212833 -0.026910866693212833 0.0 
-0.024338504435773366 0.0 0.0 
-0.00370053867066787 0.025313932502954987 -0.01040127989977182 
0.0 0.0 0.0 
0.0 0.0 0.0 
0.0052044600680270095 0.0145664512709828 -0.004715151856503103 
-0.02310921601778857 0.012829599237461931 0.0 
0.0 0.05212656068134139 0.0 
0.0077835718698832925 -0.0006331490532773421 -0.012219661594444205 
0.0 0.0 0.0 
0.0 0.0 0.0 
0.0 0.0 0.0 
0.0 0.0 0.0 
0.0 0.051719321926018406 0.0 
0.0 0.023023580139039435 -0.0013893539739075512 
0.0036216000472339433 -0.00039189427931143796 -0.00047895265181929964 
0.0 0.0 0.0 
-0.03213627770160367 0.0 0.0 
-0.026270131771945857 0.0 0.0 
0.0 0.0 -0.0185436224272559 
-0.0303209459841085 0.0 0.0 
0.0 0.0 0.0 
0.0 0.0 0.0 
0.0 0.0 0.0 
-0.019470803548618694 0.019470803548618694 0.0 
0.0 0.0 0.0 
0.0004998098174252085 -0.004874349106137925 0.0020203556894136136 
0.0 0.0 0.025461820025116755 
0.0 0.0 0.0 
-0.020244872191224332 0.0 0.020244872191224332 
0.0 0.0 0.0 
0.0 0.0 0.0 
0.0 0.0 0.0 
0.0 0.0 0.0 
0.0 0.0 0.0 
-0.008619886987669734 0.008619886987669734 0.01855541529058584 
0.0 0.0 0.0 
0.0 0.0 0.03740154353971953 
0.0 0.0 0.0 
0.00019870949932554623 -0.008014616472797042 0.0 
0.0 0.0 0.0 
0.0 0.0 0.0 
0.0 0.0 0.0 
0.0004448973929119856 0.0 0.01464617966046539 
-0.022986365300452623 0.0 0.0 
0.0015946394532438575 -0.018700771769859764 0.0 
-0.004479995686108623 0.01416810977172264 -0.004590408913976934 
0.0 0.0 0.0 
-0.003755075412857608 0.011623193572044273 0.0007547906139150262 
0.0 0.0 0.0 
0.0 0.0322783702680614 0.0 
0.0 0.0 0.0 
0.0 0.0 0.0 
0.0 0.022671483584008067 -0.022671483584008067 
-0.015183654143418249 0.0 0.015183654143418249 
0.0 0.0 0.0 
0.027131447567747363 0.0 0.0 
-0.011928059831586226 0.0 0.0010754808044872825 
-0.00733119956426396 0.01375237245974995 -0.00647756673828802 
0.0 0.0 0.0 
0.0 0.0 0.0 
0.009678469600190578 -0.009678469600190578 0.0 
0.0 0.023475436902589915 0.0 
0.01622566962384891 -0.01622566962384891 -0.01622566962384891 
0.0 0.0 0.0 
0.009350385884929882 -0.0016882641181123412 0.0 
0.0 0.0 0.0 
0.0 0.0 0.0 
0.0060347018222105635 0.009742279709889175 -0.006743103646095362 
0.0 0.0 0.0 
-0.020559233560653277 0.0 0.0 
0.026693843574719177 0.0 0.0 
0.0 0.002985242246812028 -0.002985242246812028 
-0.009882907861798882 0.01010757097966756 0.0 
0.0 0.0 0.0 
0.0 0.0 0.0 
0.0 0.026063280340670694 0.0 
0.0 0.01918861798994306 0.0 
0.0 0.014751041889718465 0.0 
0.0 0.0 0.0 
0.0 0.0 0.0 
0.0 0.0 0.0 
0.0 0.0 0.0 
0.0 0.0 0.0 
0.0 -0.016478537202402402 0.0 
0.035168615567198955 -0.016467843797339194 0.0 
0.02878292698491459 -0.02878292698491459 0.0 
0.0 0.0 0.0 
0.0 0.0 0.0 
0.010508052708778342 -0.010508052708778342 0.0 
0.0 -0.027131447567747363 0.0 
0.0 0.0 0.0 
0.0 0.012829599237461931 -0.012829599237461931 
0.005723059010104502 -0.0007559830249269416 -0.004816469169122179 
0.0005111523281097954 0.002503598245523053 0.005226775398916932 
0.0 0.0 0.0 
0.0 0.0 0.0 
0.0 0.0 0.0 
-0.026693843574719177 0.0 0.0 
0.0 0.0 0.0 
0.0 0.030173673996075876 0.0 
-0.025461820025116755 0.0 0.0 
0.0 0.0 0.0 
-0.022365112184224177 0.0 0.0 
0.0 0.0 0.0 
0.0 0.0 0.0 
0.0 0.0 0.0 
0.0 0.0 0.0 
0.0 0.026480292826121424 -0.026480292826121424 
-0.009253662461189565 0.009367065352351465 -0.005900180169597526 
0.0 0.0 0.0 
0.0 0.020060827898576834 -0.0185436224272559 
-0.01613227179707031 -0.016368559276409563 0.03204789776706701 
-0.020559233560653277 0.0 0.0 
0.0 0.015650291268393277 0.0 
0.029035408800571736 0.0 -0.029035408800571736 
0.0 0.0 -0.024160851118723927 
0.0 0.015114322389338712 -0.015114322389338712 
0.0 0.0 0.0 
0.0 0.0 0.0 
0.0 0.0 0.0 
0.01643790070856542 -0.015395852148278237 -0.0011136571749303398 
0.0 0.0 -0.0185436224272559 
0.0 0.0 0.0 
0.016305131433579548 -0.01187687027926462 -0.007918973878616174 
0.0 0.027131447567747363 0.0 
0.0 0.0 0.0 
0.029820149578965567 -0.029820149578965567 0.0 
-0.019470803548618694 0.019470803548618694 0.0 
0.0 0.0 0.0 
0.0 0.0 0.0 
0.0 0.0 0.0 
0.00048374667201537234 0.0 0.0 
0.0 0.0 0.0 
0.0 0.0 0.0 
0.0 0.0 0.0185436224272559 
0.028051157654789643 -0.028051157654789643 0.0 
0.0 0.0 0.0 
0.0 0.0 0.018237116271433488 
0.0 0.0 0.0 
0.0 0.0 0.0 
0.0 0.0 0.0 
0.02393270215341757 -0.011058534994378515 -0.007874620841930004 
-0.006620073206530356 0.012633727493378542 0.00030320945984108495 
0.0 0.0 0.0 
0.0 0.0 0.0 
0.009934719390454268 -0.003126402146257274 0.0006848256980352284 
-0.012929830481504602 0.0 0.012929830481504602 
-0.025076034873221045 0.025076034873221045 0.0 
0.06245352081632411 0.0 0.0 
0.0 0.0 0.0 
0.0 0.0 0.0 
0.0 0.0 0.0 
0.0 0.028051157654789643 0.0 
0.0 0.0 0.0 
0.0 -0.02929235932093078 0.02929235932093078 
0.0 0.0 0.0 
0.0 0.0 0.0 
0.0 0.0 0.0 
-0.0035485136012117155 0.006898348077154573 -0.007605601448274943 
-0.022986365300452623 0.045972730600905246 0.0 
0.0 0.0 0.0 
0.0 0.0 0.0 
0.0 0.024887493257632915 0.0 
0.0 0.0 0.0 
0.005550862266271697 -0.005140857985860907 -0.003598137944036368 
0.0 0.005587009023904781 -0.005695941439346609 
0.0 0.0 0.0 
0.012036496739146101 0.0 -0.012036496739146101 
0.0 0.025076034873221045 -0.025076034873221045 
0.0 0.0 0.0 
-0.020559233560653277 0.0 0.0 
0.0 0.0 0.0 
0.0 0.0 0.0 
0.0 0.0 0.0 
0.0 0.05053490997351417 -0.025267454986757084 
0.0051719321926018405 -0.016652689780503584 0.00551672767210863 
0.0 0.0 0.0 
0.0 0.0 0.0 
0.0016630961974487685 -0.008553066158307953 0.008553066158307953 
0.0 0.0 0.0 
0.004882059886821797 -0.014301058745769254 -0.009084879535933838 
0.0 0.0 0.0 
0.0 0.0 0.0 
-0.005825745475596809 -0.003374145365204055 0.014799896653111738 
0.0 0.0 0.0 
-0.0062862955225568735 0.01601312148203328 -0.003221446815829857 
0.0 0.0 0.0 
0.0 0.0 0.0 
0.0 0.0 0.0 
0.03804639773868021 0.0 -0.019023198869340105 
0.0 0.0 0.0 
0.0 0.0 0.0 
0.0 0.0 0.0 
0.0032092880835834464 0.0065497828241684345 -0.00956912791539292 
0.019356939200381156 0.0 -0.019356939200381156 
-0.015514764132364432 -0.016870726826020276 0.04796946743326784 
-0.004211242497792847 -0.004797154497485765 -0.004559279067858372 
-0.025076034873221045 0.025076034873221045 0.0 
0.0 0.0 0.0 
-0.025659198474923862 0.025659198474923862 0.0 
0.0 0.0 0.0 
0.0 0.0 0.0 
0.0 0.016717356582147364 -0.016717356582147364 
0.0 0.0 0.0 
-0.025267454986757084 -0.025267454986757084 0.0 
-0.014910074789482784 0.012538017436610522 -0.012538017436610522 
0.0 0.0 0.0 
0.0 0.0 0.0 
0.0 0.0 0.0 
-0.00281625666694134 -0.0026166297259013266 -0.0026164182981600614 
0.0 0.0 0.0 
0.0 0.0 0.0 
0.0 0.012929830481504602 0.0 
0.0 0.0 0.0 
-0.009678469600190578 -0.008970288897737612 0.01864875849792819 
0.0 0.0 0.0 
0.0 0.0 0.0 
0.0 0.0 0.0 
0.0 0.0 0.0 
0.0 0.0 0.0 
0.0 0.0 0.0 
0.0 0.024887493257632915 0.0 
0.0 0.0 0.0 
0.01616329562113905 -0.008709289569678428 -0.008597497670818645 
0.0 -0.030648487067270164 -0.030648487067270164 
0.0 0.012538017436610522 -0.012538017436610522 
-0.016972204882116638 -0.015503684324427065 0.016972204882116638 
-0.012829599237461931 -0.002354054905956318 0.002354054905956318 
0.0 0.0 -0.024160851118723927 
0.0 0.0 0.017653528550747616 
0.0 0.0 0.0 
0.0 0.025076034873221045 0.0 
0.0 0.0 0.0 
0.0 -0.015324243533635082 -0.015324243533635082 
0.025219326501068024 0.0 0.0 
0.0 0.0 0.0 
-0.008021460200160813 0.012227475249788195 0.008021460200160813 
0.0 0.0 0.056102315309579286 
0.0 0.0 0.0 
0.0 0.0 -0.01464617966046539 
0.0 0.0 0.0 
0.007347473037214601 -0.0035401460997488534 -0.0036737365186073007 
0.0 0.05471134881430047 0.0 
0.0 0.03504663153907052 -0.03504663153907052 
0.0 0.0 0.0 
-0.006316863746689271 -0.013908690818398396 0.0075918270717091245 
-0.005338768714943835 0.004977498651526583 0.0 
-0.028051157654789643 0.0 0.0 
0.028534798304010154 -0.028534798304010154 0.0 
-0.001309880645111336 -0.0051754531095982385 0.0019431478424367825 
0.011921537489158633 -0.0066266999064367935 -0.01220873617059853 
0.0 0.024518789653816136 0.0 
0.00531704316223792 -0.019023198869340105 0.0 
0.0 0.0 0.0 
0.0 0.0 0.0 
0.008233921898669597 -0.00023866440285998797 0.0 
0.0 0.0 0.0 
-0.014973664000355005 -0.003739037661081891 0.011414484857059115 
0.0 0.0 -0.018237116271433488 
0.0 0.0 0.0 
0.02062328101722852 0.0 0.0 
-0.025659198474923862 0.0 0.025659198474923862 
0.0 0.0 0.0 
0.029820149578965567 -0.029820149578965567 0.0 
0.0 -0.029035408800571736 0.029035408800571736 
0.0 0.0 0.0 
0.026910866693212833 0.0 -0.026910866693212833 
0.0 0.0 0.0 
-0.012259394826908066 0.009525285189252311 -0.012730910012558378 
0.0 0.027355674407150234 0.0 
0.0 0.0 0.0 
0.0 0.0 0.0 
0.03821181685928317 -0.019023198869340105 0.0 
0.0 -0.013455433346606416 0.013455433346606416 
0.0 0.0 0.0 
-0.0057069596608020304 -0.0060182483695730505 0.00584317205336729 
0.01918861798994306 0.0 -0.01751342118129724 
0.0 0.0 0.0 
-0.008039636302343183 -0.00959952178238549 0.011780865413313402 
0.0 0.0 0.0 
0.0 0.0 0.026480292826121424 
0.0 0.011220463061915858 0.0 
-0.014910074789482785 0.03394909336682234 0.0 
0.0 -0.019880099719310377 0.019880099719310377 
0.0 0.0185436224272559 -0.017653528550747616 
0.0 0.0 0.025461820025116755 
0.0 0.0 0.0 
-0.025859660963009203 0.025859660963009203 0.0 
-0.03394909336682234 0.0 0.0 
0.014263481727268683 -0.014047080061238452 -0.014062960631368086 
0.0 -0.001486064229950521 0.014517704400285868 
-0.00366559978213198 0.007200254968063437 -0.00732747124092447 
0.0 0.0 0.0 
0.008520042736847306 -0.008520042736847306 0.007565797950320407 
0.0 0.0 0.0 
0.0006129697413454049 -0.008275091508162946 0.007323089830232695 
0.0 0.0 0.0 
0.0 0.0 0.0 
0.023549901131566228 -0.007583206868813012 -0.007446651525905912 
0.02062328101722852 0.0 0.0 
-0.010425312136268277 0.0 0.021551485592621815 
0.0 -0.002514747656801656 -0.016345859769210755 
-0.009118558135716744 0.018237116271433488 0.00927181121362795 
0.0 0.0 0.0 
-0.014145455569509309 0.014145455569509309 0.0 
0.0 0.0 0.0 
-0.016717356582147364 0.016717356582147364 0.0 
0.004454308333248341 -0.0062724206789048454 -0.0031005390113225863 
0.0 0.0 0.0 
0.0 0.004546753575913706 -0.00015678460606599002 
0.0 0.0 0.0 
0.0 0.022632728911214893 -0.022632728911214893 
0.0 0.016591662171755277 0.0 
0.0 0.0 -0.027355674407150234 
0.0 0.0 0.0 
-0.025267454986757084 0.0 0.0 
0.0 0.0 0.0 
-0.011316364455607446 0.02013972531309987 0.0 
0.0 0.0 0.0 
0.0 0.0 0.0 
0.026270131771945857 -0.026270131771945857 0.0 
0.0 0.012538017436610522 0.0 
0.004283119465751594 0.005853168502320012 -0.004865279704677464 
0.01918861798994306 -0.01918861798994306 0.0 
0.009008721610028343 0.006616840551604382 0.0 
0.0006184668127075193 -0.005739772083597724 -0.005435627424761912 
-0.02546481060768959 0.02546481060768959 0.0 
0.0 0.0 0.0 
0.0 0.0 0.0 
0.0 0.0 0.0 
0.0 0.0 0.0 
-0.003265629856300748 0.0033307552330654874 0.0012605970763915045 
0.0 0.0 0.0 
0.0 0.0 0.0 
0.022637648000306657 -0.022637648000306657 -0.012373968610337113 
0.0 0.0 0.0 
0.0 0.01697454668341117 0.0 
0.0 0.0 0.0 
-0.014910074789482785 0.0 0.0 
0.0 0.0 0.0 
0.0 0.0 0.0 
0.0185436224272559 0.0 -0.0185436224272559 
0.0 0.0 0.0 
0.0 0.0 0.0 
0.0 0.022986365300452623 0.0 
0.0 0.0 0.0 
0.0 -0.025076034873221045 0.025076034873221045 
-0.007195731746228648 0.0 -0.0006109583558118661 
-0.02158004384557699 0.02324442428719367 0.0 
0.0 0.05212656068134139 0.0 
-0.03245133924769782 0.0 0.03245133924769782 
0.0 0.03635430032060738 -0.03635430032060738 
0.0 0.0 0.0 
0.0 -0.027355674407150234 0.027355674407150234 
-0.006790220461557459 -0.014630278803836556 -0.008069215963879044 
0.0 0.0 0.0 
0.0 0.0 0.0 
0.0 0.0 0.0 
0.0006086278021736351 -0.0020777322063495742 0.004264478348797718 
0.0 0.0 0.0 
0.0008863673240124062 0.0016860227633206102 0.0010435172141441294 
0.0 0.0 0.0 
-0.0185436224272559 0.0 0.0 
0.0 0.0 0.0 
0.0 0.025859660963009203 -0.013565723783873681 
0.0 0.0 0.0 
0.0 0.027815433640883847 0.0 
0.005100210482689026 0.01581021320172076 -0.010426093995585532 
0.007284567940626532 -0.0002460079229479875 -0.000374942199307914 
0.0 0.0 0.0 
-0.013565723783873681 0.0 0.0 
0.0 0.012443746628816458 0.0 
0.0 0.0 0.0 
0.0 0.0 0.0 
-0.009851299414479696 -0.009851299414479696 0.03806367061900951 
-0.007443860427133084 -0.022873761732782317 0.02792255420369112 
0.0 0.0 0.010942269762860092 
0.0 0.0 0.0 
0.0 0.0 0.0 
0.0 0.0 0.0 
0.0 0.0 0.0 
0.0 0.006269008718305261 0.0 
0.0 0.0 0.0 
0.0 0.02364311859475127 0.0 
0.0 -0.028290911139018618 0.0 
0.0 0.0 0.0 
0.0 0.0 0.0 
0.0029279403832509314 0.0050393535324300565 -0.00020386156987163648 
0.0 -0.017106132316615907 0.0 
-0.008034069425400917 0.0 0.007258852200142934 
0.0 0.012538017436610522 -0.012538017436610522 
0.0 0.0 -0.02929235932093078 
0.0 0.0 0.0 
0.0 0.0 0.0 
0.0 0.0 0.0 
-0.022986365300452623 0.045972730600905246 0.0 
-0.022365112184224177 0.0 0.0 
0.0 0.0 0.0 
0.0 0.0 0.013240146413060712 
-0.007788321419447478 0.007788321419447478 0.0 
0.0 -0.010508052708778342 0.0 
0.0 0.025461820025116755 0.0 
-0.022365112184224177 0.0 0.0 
-0.04867700887154674 0.0 0.0 
-0.006464915240752301 0.020519582194094645 0.006464915240752301 
0.0 -0.016490803816018213 0.0 
0.0 0.0 0.0 
-0.026270131771945857 0.0 0.0 
0.0 0.0 0.0 
0.0 0.0 0.0 
0.0 0.0 0.0 
0.0 0.024887493257632915 0.0 
0.0 0.0 0.0 
0.0 -0.015641428922716805 -0.007626812449919765 
0.0 0.0 0.0 
0.0 0.020687728770407362 0.0 
-0.028290911139018618 0.028290911139018618 0.0 
-0.005837807060432413 0.011493182650226313 0.0 
0.0 0.0 0.0 
0.012860290496390047 -0.007158246390851412 0.0 
0.007528410105846695 -0.010623269124882276 -0.00029768657846474325 
0.0 0.05471134881430047 0.0 
0.0 0.01059211713044857 0.0 
0.0 0.009848439821035728 0.0 
0.0 0.024518789653816136 -0.024518789653816136 
0.00359179279351177 0.011839613282316565 0.0 
0.0 0.03394909336682234 0.0 
0.0 0.0 -0.0070727277847546545 
0.027815433640883847 0.0 -0.027815433640883847 
-0.007651009555302018 -0.006158651420789205 0.015486758396419898 
0.0 0.0 0.0 
-0.0111382586490475 0.007489412830908992 0.002851022052769318 
0.0 0.0 0.03740154353971953 
0.0 0.0 0.0 
-0.025461820025116755 0.0 0.0 
0.0 0.0 0.0 
-0.016717356582147364 0.016717356582147364 -0.018237116271433488 
-0.016386319818144444 -0.014391463492457296 0.0 
0.003667507788788549 -0.003836533096586663 0.0029082945233026582 
-0.009032332796489004 0.004276533079153977 0.0005145737379175334 
-0.011413919321604061 -0.011413919321604061 0.011413919321604061 
0.0 0.018700771769859764 0.0 
0.0 0.025076034873221045 -0.025076034873221045 
0.0077700389748008875 0.009043815855915788 0.0 
0.013858550237630307 -0.005944651791308561 -0.004468526320855011 
0.0 0.0 0.0 
0.0 0.0 0.0 
0.0 0.0 0.0 
0.0 0.0 0.0 
0.0 0.0 0.0 
0.0 0.0 0.0 
0.0 0.0 0.0 
0.0 0.0 0.0 
0.0 0.025076034873221045 0.0 
0.0005421116418926205 0.002775979840581066 -0.006504636329610236 
-0.028534798304010154 0.0 0.0 
0.0 0.024887493257632915 0.0 
0.0 0.0 0.0 
-0.025076034873221045 0.025076034873221045 0.0 
0.0 0.0 0.0 
0.0 0.0 0.0 
0.0 0.0 0.0 
0.0 -0.020244872191224332 0.0 
0.0 0.0 0.0 
0.0 0.0 0.0 
-0.020559233560653277 0.0 0.0 
0.0 0.0 0.0 
0.0 0.0 0.010508052708778342 
-0.01751342118129724 0.018700771769859764 -0.018700771769859764 
0.0 0.0 0.0 
-0.014910074789482785 0.0 0.0 
0.0 0.010425312136268277 0.012036496739146101 
-0.028051157654789643 0.0 0.028051157654789643 
0.0 0.0 0.0 
0.0 0.0 0.0 
0.0 0.0 0.0 
-0.008687760113556897 0.0 0.0 
0.008014616472797042 -0.00733119956426396 -0.008014616472797042 
0.027131447567747363 0.0 0.0 
0.0 0.0 0.0 
0.0 0.0 0.0 
0.0 0.0 0.0 
0.0 0.0 0.0 
0.0 0.0 0.0 
0.0 0.0 0.0 
0.0 0.0 0.0 
0.0 0.024887493257632915 0.0 
0.0 0.024887493257632915 0.0 
0.028534798304010154 -0.028534798304010154 0.0 
0.0 0.0 0.0 
0.0 0.0 0.0 
0.0 0.0 0.0 
0.0 0.0 0.0 
0.0 0.0 0.0 
0.0 0.0 0.0 
0.0 0.0 0.0 
0.0 0.0 0.0 
0.010887877363783657 0.013501693591550318 -0.004343880056778449 
0.0 -0.023448788667268787 0.01569694650505525 
0.009359087031422658 -0.005015206974644209 -0.004343880056778449 
0.009171779432875801 -0.01009116569805572 -0.006087555135330698 
-0.013135065885972928 0.013135065885972928 0.0 
-0.013780660750514073 -0.006782861891936841 0.021266252866995745 
0.0 0.0 0.0 
-0.00400973543702626 -0.004337775631363228 0.010555812885656362 
-0.01779589571647945 0.0 0.0 
0.0 0.0 0.0 
-0.01779589571647945 0.0 0.0 
0.0 -0.014145455569509309 0.0 
0.007033545584166826 -0.006945081382122676 -0.0009625426901862364 
0.0 0.0 0.0 
0.01306433440132608 -0.0035175323376548523 -0.009656430853568942 
0.0 0.036474232542866976 0.0 
-0.007388474560859772 -0.013455433346606416 0.007388474560859772 
0.0 -0.020244872191224332 0.0 
0.00911019838548147 0.000804814209842011 -0.0053664534918445635 
-0.018700771769859764 0.0 0.0 
0.0 -0.027355674407150234 0.027355674407150234 
0.0 0.0 0.0 
0.0 0.0 0.0 
0.003252790077479747 -0.004749225526876027 0.002369102131917686 
-0.004887466376175973 0.005147223599602385 -0.00473818878117741 
-0.019470803548618694 0.019470803548618694 0.0 
0.0 -0.027131447567747363 0.027131447567747363 
-0.012149460027647184 -0.006985015074224592 0.019024280224869742 
0.0 0.0 0.0 
-0.026693843574719177 0.0 0.0 
-0.005658182227803724 0.0 0.0 
0.0 0.0 0.0 
-0.006781359596944163 -0.009279500429597128 0.01565189419100857 
-0.013677837203575117 0.0 0.027355674407150234 
-0.008687760113556897 -0.009043815855915788 0.0 
0.0 0.0 0.0 
0.0 0.024887493257632915 0.0 
0.0 0.0 0.0 
0.0 0.0 0.0 
0.0 0.026480292826121424 -0.026480292826121424 
-0.017106132316615907 0.053281395740279056 0.0 
0.0 -0.027131447567747363 0.027131447567747363 
0.014267399152005077 -0.014267399152005077 0.0 
0.0 0.0185436224272559 0.0 
0.0 0.0 0.0 
-0.004473022436844836 0.01034137847691596 -0.01034137847691596 
-0.019470803548618694 0.019470803548618694 0.0 
0.029820149578965567 -0.029820149578965567 0.0 
0.0 0.0 0.0 
0.0 0.010030413949288419 -0.010030413949288419 
-0.005131839694984772 -0.005548476172953871 0.0 
0.0 -0.0014682886877659552 0.009764119773643594 
0.011614163520228694 -0.010764346677285132 -0.011614163520228694 
0.0 0.016345859769210755 -0.016345859769210755 
0.0 0.0 0.0 
0.0 0.0 0.0 
-0.029820149578965567 0.0 0.0 
-0.026480292826121424 0.0 0.026480292826121424 
0.009295280763349522 -0.002641708283341374 -0.00035136037064247786 
0.0 0.0 0.0 
0.0 0.012538017436610522 -0.012538017436610522 
0.0 0.2942254758457936 -0.09807515861526454 
0.0 -0.011126173456353538 0.0 
0.0 0.0 0.0 
0.0 0.0 0.0 
-0.012126553087297608 0.017042877444845596 0.007258852200142934 
0.0 0.017106132316615907 0.0029546955819609276 
-0.028534798304010154 0.0 0.0 
0.0 0.04728623718950254 0.0 
0.0 0.053821733386425666 0.0 
0.0 0.0 0.0 
-0.0012699834288459639 -0.004597182044668203 -0.0012588032224534534 
-0.00211021793777202 -6.477922220098141e-05 -0.003883225531837546 
0.0 -0.029820149578965567 0.029820149578965567 
0.0 0.06490267849539565 -0.03245133924769782 
0.0 -0.011716943728372311 0.011716943728372311 
0.0 0.0 0.0 
-0.019470803548618694 0.019470803548618694 0.0 
0.0 0.0 0.0 
0.0 -0.026270131771945857 0.0 
0.010408920136054019 0.0 0.0 
0.015296299897138335 0.0 -0.009712537226876532 
0.0 0.0 0.0 
0.0 0.054262895135494725 0.0 
0.0 -0.011614163520228694 0.011614163520228694 
0.0183890922403621 0.0 0.0 
0.0 0.0 0.0 
0.0 0.0 0.0 
0.030444144952000346 0.0 -0.015894533509076485 
0.0 0.025859660963009203 0.0 
0.0 0.0 0.0 
0.017106132316615907 0.0 -0.017106132316615907 
-0.010817113082565942 -0.018702114926634157 0.010817113082565942 
-0.006620073206530356 -0.007733730381460696 0.007570941696054211 
0.0 0.0 0.0 
-0.0015397221883552328 0.000668874331441538 -0.003493304709050516 
0.00515582025430713 0.012255509505501565 0.0 
0.0 0.0 0.0 
0.0 0.0 0.0 
-0.015431406075828335 0.03086281215165667 0.0 
-0.0002965384759582648 0.0002965384759582648 0.0 
0.0 0.0 0.0 
-0.006567532942986464 -0.0010591120319124415 0.0007826853621893714 
0.0 0.0 0.0 
0.0001230039614739933 0.0060988693529342355 0.0 
0.0 0.0 -0.030091241847865255 
0.0 0.0 0.0 
0.0 0.0 0.0 
0.0 0.0 0.0 
0.0 0.0 0.018700771769859764 
0.026480292826121424 -0.026480292826121424 0.0 
0.0010915453400585759 -0.008666022839885705 0.004414263457388278 
0.0 0.0 0.0 
0.0 0.0 0.0 
0.0 0.0 0.0 
0.0 0.012443746628816458 0.0 
0.0 0.0 0.0 
0.0 0.0 0.0 
-0.008826764275373808 0.008358678291073682 0.0004680859843001258 
-0.018237116271433488 0.018237116271433488 0.0 
-0.019470803548618694 0.019470803548618694 0.0 
0.0 0.0 0.0 
-0.007505751934841673 0.0 -0.007947266754538242 
0.0 0.0 0.0 
0.0 0.0 0.0 
-0.0185436224272559 0.0 0.0 
0.0 0.0 0.0 
0.0183890922403621 0.0 0.0 
0.0 0.0 0.0 
-0.029035408800571736 0.0 0.029035408800571736 
0.027815433640883847 0.0 -0.027815433640883847 
0.0 -0.019880099719310377 0.0 
0.0 0.026480292826121424 -0.026480292826121424 
0.0 -0.01886060742601241 0.0 
0.0 0.024887493257632915 0.0 
0.0 -0.01206075300216722 0.007690852461895952 
0.06245352081632411 0.0 0.0 
0.030091241847865255 -0.030091241847865255 -0.030091241847865255 
0.0 0.0 0.0 
0.010425312136268277 -0.011928059831586226 0.0 
0.0 -0.0007383942007172326 0.0 
-0.0075421179431551764 -0.002582296526871329 0.009634896057289084 
0.0 0.0 0.0 
0.0 0.05092364005023351 0.0 
0.0 0.0 0.0 
0.0 0.0 0.0 
0.0 0.0 0.0 
0.0 0.0 0.0 
-0.009735401774309347 0.009735401774309347 0.0 
0.0 0.0 0.0 
0.013455433346606416 -0.013455433346606416 -0.013455433346606416 
0.0 0.0063060915836253735 0.0 
0.01499258258160363 -0.007258852200142934 0.0 
0.007369179679264058 -0.00261689207423183 0.0008203405247715608 
0.0 -0.020060827898576834 0.0 
0.0 0.0 0.0 
0.0 0.0 0.0 
0.0005403952279259274 0.0023989304997996033 0.00010622710536794524 
0.0 0.0 0.0 
0.013053138695362114 -0.013240146413060712 -0.01059211713044857 
0.0 0.0 0.0 
0.0 0.0 0.0 
0.0 0.0 0.0 
0.0 0.0 0.0 
0.0 0.0 0.0 
0.0 0.0 0.0 
0.0 0.023985772487428825 0.0 
-0.008619886987669734 -0.001320162871985454 0.009940049859655188 
0.0 0.0 0.0 
0.0 0.011335741792004033 -0.011335741792004033 
-0.010408920136054019 -0.03004295566633624 0.010408920136054019 
0.0 0.0 0.0 
0.0 0.0 0.0 
-0.024160851118723927 0.0 -0.024160851118723927 
0.0 0.0 0.0 
0.0 0.0 0.0 
0.029820149578965567 -0.029820149578965567 0.0 
-0.023147109113742504 0.04629421822748501 0.0 
0.0 0.0 0.0 
0.0 0.029035408800571736 -0.029035408800571736 
0.0 0.009807515861526454 -0.010852579027098944 
-0.010942269762860092 0.0 0.010942269762860092 
0.0 0.0 0.0 
0.0 0.0 0.0 
-0.010343864385203681 0.0 0.010343864385203681 
0.0 0.05015206974644209 -0.05015206974644209 
0.0006064189196821699 0.0 -0.013240146413060712 
0.0 0.0 0.0 
0.0 0.022986365300452623 0.0 
0.009678469600190578 -0.009678469600190578 -0.009678469600190578 
-0.023147109113742504 0.04629421822748501 0.0 
0.0 0.0 0.0 
-0.0010057233237922882 -0.008112834811924456 0.0010057233237922882 
-0.014267399152005077 -0.015324243533635082 -0.015324243533635082 
0.005320582316210483 -0.002337276351060961 -0.00011349871430961793 
0.0 0.014025578827394821 -0.014025578827394821 
0.0 -0.008358678291073682 0.008358678291073682 
-0.00043585437329020284 0.008494261520262229 0.0002925917176678644 
0.0 0.0 0.0 
0.0 0.0 -0.02929235932093078 
0.0 0.0 0.0 
0.0 0.024887493257632915 0.0 
-0.014910074789482784 0.0 0.014910074789482784 
-0.025659198474923862 0.025659198474923862 0.0 
0.0 0.0 -0.027815433640883847 
-0.006953301157567883 0.005514593638959953 0.00017689482429688892 
0.0 0.025659198474923862 0.0 
0.0 0.0 0.0 
0.0 0.06196922410012353 -0.021634226165131883 
-0.019470803548618694 0.019470803548618694 0.0 
0.0 0.0 0.0 
0.014517704400285868 -0.0020739577714694105 -0.014517704400285868 
0.00016265376073270428 -0.003465506403050257 0.0031473964490009404 
0.000403115198511262 -0.014753376250221403 0.007411664633922804 
-0.019470803548618694 0.019470803548618694 0.0 
0.010152633278922605 -0.00551672767210863 -0.004635905606813975 
0.0 0.0 0.0 
-0.00800134010928909 0.001625073552623783 0.008824003873333923 
0.0 0.0 0.0 
-0.00417933914553684 0.01341602986214347 0.0 
0.0 0.02942254758457936 -0.009807515861526454 
-0.011493182650226311 0.012169252217886683 0.0 
-0.019470803548618694 0.019470803548618694 0.0 
0.0 0.0 0.0 
0.0 0.0 0.0 
0.0 0.0 0.008826764275373808 
0.0 0.027815433640883847 0.0 
0.0326975045858494 -0.007947266754538242 0.0 
-0.0037528759674208367 -0.0041846227601329685 -0.011936464922346502 
0.0 0.0 0.0 
0.0 0.0 0.0 
-0.026480292826121424 0.0 0.026480292826121424 
0.0 0.0 0.0 
0.0 0.0 0.0 
0.0027175998384771577 -0.00765449639355788 -0.006187533273331129 
-0.022986365300452623 0.0 0.0 
0.0 0.028051157654789643 0.0 
0.0 0.0 0.0 
0.0 0.024887493257632915 0.0 
0.0 0.0 0.0 
0.0 0.0 0.0 
0.0 0.011992886243714413 0.0 
0.0 0.0 0.0 
0.0 -0.029553898243439087 0.0 
0.0 0.0 0.0 
0.0 0.0 0.0 
0.0 0.04922193110954066 -0.012259394826908068 
-0.017106132316615907 0.017106132316615907 0.0 
0.0 0.0 0.0 
0.02878292698491459 -0.02878292698491459 0.0 
0.0 0.05563086728176769 0.0 
0.0 0.0 -0.024160851118723927 
0.027583638360543148 0.0 -0.027583638360543148 
0.0 0.0 0.0 
0.0 0.0 0.0 
0.0 -0.003326192394897537 -0.020432324711513444 
0.0 0.012829599237461931 0.0 
-0.025659198474923862 0.025659198474923862 0.0 
-0.010712092567201223 0.009430303713006205 -0.009430303713006205 
0.0 0.0 0.0 
0.0 0.0 0.0 
0.03497156813336798 -0.02149962561398496 -0.0062344785658207695 
0.0 0.0 0.0 
0.0021502483261392202 0.0023725382101188203 -0.0007248039803790698 
0.014218999420368483 -0.007323089830232695 -0.006953858410220962 
0.0 0.0 0.0 
-0.0006328656241651894 0.011928804069305495 0.0 
0.0 0.0 0.0 
0.0 0.0 0.0 
0.0006390359583941202 -0.010211407734429403 0.009870695761038665 
0.0 0.0 0.0 
0.0 -0.02153289489503759 0.01632371390852899 
0.0 0.0 0.027815433640883847 
0.0 0.009954997303053166 0.0 
0.0 0.0 0.0 
0.0 0.0 0.0 
0.0 0.0 0.0 
0.0 0.0 -0.027355674407150234 
-0.0071148273549020025 0.002990041090586331 0.011129162574210993 
-0.015431406075828335 0.013756679835040763 0.0 
0.01301600637114406 0.013677837203575117 -0.013677837203575117 
0.0 0.0 0.0 
0.0 -0.029553898243439087 0.0 
-0.025659198474923862 0.025659198474923862 0.0 
0.04012165579715367 -0.04012165579715367 -0.04012165579715367 
0.02878292698491459 -0.02878292698491459 0.0 
0.0 0.0 0.0 
0.0 0.0 0.0 
0.0 0.0 0.0 
0.0 0.0 0.0 
0.009035148069048947 -0.0038371738614897473 0.002486879491559112 
0.0 0.0 0.0 
0.0 0.0 0.0 
0.005534696501641729 0.004049753910274859 -0.009957248928114643 
0.0 0.0 0.0 
-0.025267454986757084 -0.025267454986757084 0.0 
0.027815433640883847 0.0 0.0 
0.0 -0.0003264335900655989 0.0 
0.0 0.0 0.0 
0.0 0.0 -0.027815433640883847 
0.0 0.0 0.0 
0.0 0.0 0.0 
-0.0005302976910485963 -0.014099594906603837 0.008717259196248963 
-0.01008060784728319 -0.005360910552316986 0.005521328779424817 
-0.009803947525774093 -0.009940786077449328 0.006707679121214833 
0.0 0.0 0.0 
0.012292444471852966 0.008312033880967244 -0.014776949121719543 
0.0 0.0 0.0 
0.002674777053143578 -0.012269086048115108 0.0 
0.0 -0.007388474560859772 0.006620073206530356 
0.0 0.0 0.0 
0.0 0.0 0.0 
0.0 0.0 0.0 
-0.024160851118723927 0.0 -0.024160851118723927 
0.0 0.06129697413454033 0.0 
-0.012829599237461931 0.0 0.012829599237461931 
0.0 0.028051157654789643 0.0 
0.0 0.0 0.0 
0.0 0.0 0.0 
0.0 0.0 0.0 
0.0 0.030091241847865255 0.0 
0.0 -0.027583638360543148 0.027583638360543148 
0.0 0.0 0.0 
0.027131447567747363 -0.027131447567747363 0.0 
0.007016505783286016 -0.004131942294601764 -0.002884563488684251 
0.0 0.0 0.0 
-0.005053490997351417 -0.021332359537999834 0.00017226315916030101 
0.0 0.015193829827614724 -0.008083117468291033 
0.0 0.0 -0.016107234079149286 
0.0 0.0 0.0 
0.0 0.005100210482689026 -0.005100210482689026 
-0.025659198474923862 0.025659198474923862 0.0 
0.0 0.0 0.0 
0.0 -0.021978752483452484 0.0 
0.0 0.0 0.0 
0.0 0.0 -0.009118558135716744 
0.0 0.0 0.0 
0.0 0.025461820025116755 0.0 
-0.005323943058423433 0.005323943058423433 0.0 
-0.0017315672823967052 -0.0015841738880885707 0.002108502009020191 
0.011043587075479165 -0.005471134881430045 0.0 
0.0 0.0 0.0 
-0.025659198474923862 0.025659198474923862 -0.025659198474923862 
-0.007164581392348871 -0.008810954194125975 0.007751842162213533 
0.0 0.009043815855915788 0.0 
0.01758347486602243 -0.00875671059064862 -0.008826764275373808 
0.0 0.0 0.0 
0.0 0.0 0.0 
0.005807081760114347 -0.012032301719026868 0.0 
-0.008101681058277266 0.0 0.003723325762952956 
-0.0037528759674208367 0.003376546434191992 -0.004248166719266883 
0.0 -0.027355674407150234 0.027355674407150234 
0.0 0.0 0.0 
0.0 0.025659198474923862 0.0 
-0.006365455006279189 0.013463286142032689 -0.006316863746689271 
0.0010000686765715761 0.009431122368275128 0.001189989509147089 
-0.019470803548618694 0.019470803548618694 0.0 
0.0 0.0 0.0 
-0.01622566962384891 0.0 0.01622566962384891 
0.0 0.0 0.0 
0.0 0.025461820025116755 0.0 
0.0 0.0391702615201209 -0.012259394826908068 
-0.008152799515431472 -0.008152799515431472 0.008152799515431472 
0.0 0.0 0.0 
0.0 0.0 0.0 
0.0 0.0 0.0 
0.0 0.0 0.0 
0.0 0.0 0.0 
0.0 0.0 0.0 
0.0 0.0 0.0 
0.0 0.059107796486878174 0.0 
0.0 0.0 0.0 
-0.008553066158307953 0.007147624675738042 0.018882677909360338 
0.0 0.0 0.0 
-0.012259394826908068 -0.002098146934118394 0.0 
0.0 0.007164581392348871 -0.007164581392348871 
-0.011182556092112089 0.0 0.0 
0.0 0.024072993478292202 0.0 
0.0 -0.006567532942986464 -0.006567532942986464 
-0.01298053569907913 0.01298053569907913 0.0 
0.0 0.025461820025116755 0.0 
0.0037142393638644362 -0.004705825920587494 -0.0017623901244077141 
0.0 0.0 0.0 
0.007195731746228648 0.004625827551146987 0.0 
0.0 0.0735563689614484 -0.024518789653816136 
0.020817840272108038 0.0 0.0 
-0.011939971779686441 -0.0004873323953254582 0.004460965772594579 
0.0 0.029820149578965567 0.0 
0.0 0.0 0.0 
0.0 0.024887493257632915 0.0 
0.022232169116015055 -0.028192573388175764 0.00217291511379552 
0.026063280340670694 0.0 -0.026063280340670694 
0.0 0.0 0.0 
0.0 0.027131447567747363 0.0 
-0.019880099719310377 0.0 0.019880099719310377 
0.0 -0.007323089830232695 0.014845900292199008 
-0.020559233560653277 0.0 0.0 
0.0 0.0 0.0 
-0.022365112184224177 0.0 0.0 
-0.008358678291073682 -0.0009295304381414697 0.00039026087097542624 
0.0 -0.020244872191224332 0.020244872191224332 
-0.024160851118723927 0.0 -0.024160851118723927 
-0.009118558135716744 0.0 0.0 
0.0 -0.01918861798994306 0.0 
0.0 0.0 -0.027815433640883847 
0.012169252217886683 -0.012169252217886683 -0.012169252217886683 
0.0 -0.001486785311494954 -0.00875671059064862 
0.0 0.0 0.0 
-0.01751342118129724 0.01751342118129724 0.0 
-0.013385704663753911 0.01764541571593569 -0.004973758983118224 
0.015254617005524074 -0.007565797950320407 -0.007688819055203667 
-0.004281933622060185 0.009653874105329956 -0.0012259009702068038 
0.026910866693212833 -0.026910866693212833 0.0 
0.0 0.0 0.0 
-0.028051157654789643 0.0 0.028051157654789643 
-0.006427795767177735 0.01197134738054713 -0.010889314745299097 
0.029820149578965567 -0.029820149578965567 0.0 
0.0 0.027131447567747363 0.0 
0.0 -0.011928059831586226 0.0 
0.0 0.0 0.0 
0.0 0.0 0.0 
0.0 0.033232940151448724 -0.010343864385203681 
0.0 -0.010942269762860092 0.0 
0.015154903603760005 0.011746223041623614 -0.01345056332269181 
0.0 0.0 0.0 
0.029820149578965567 -0.029820149578965567 0.0 
0.0 0.0 0.0 
0.0 0.0 0.0 
0.024338504435773366 -0.024338504435773366 -0.024338504435773366 
-0.011493182650226311 0.0 0.0 
0.014800344608089336 -0.0068530778535510935 -0.007947266754538242 
-0.007662121766817541 0.0 0.0145010403686051 
0.0 0.0 0.0 
0.0 0.0 0.0 
0.01017708824039918 -0.0055624257278022 0.004827455168794598 
0.0 0.0 0.0 
0.01059211713044857 -0.01059211713044857 0.0 
-0.008083117468291033 0.029442914494735684 0.0 
-0.005279165236467587 -0.010821394826760122 0.005279165236467587 
0.0 0.0 0.0 
0.0 0.0 0.0 
0.0 0.0 0.0 
0.03152415812633503 0.0 0.0 
0.0 0.0 0.0 
0.0 0.0 0.0 
0.0 -0.028051157654789643 0.0 
0.0 -0.01886060742601241 0.0 
0.008937903757046426 -0.016512062829490123 0.0032715779582041258 
0.0 0.0 0.0 
0.0 -0.013455433346606416 0.0 
0.0 0.0 0.0 
0.0 0.0 -0.018087631711831576 
0.0 0.0 0.0 
0.026910866693212833 -0.026910866693212833 0.0 
0.0 0.0 0.0 
0.0 0.0 0.0 
0.0 0.0 0.0 
0.0 0.0 0.0 
0.0 0.0 0.0 
6.968204714043885e-05 -0.016235916983722506 0.008083117468291033 
0.0 0.027131447567747363 0.0 
-0.00112273508550853 0.008920273283695835 -0.010520391116872469 
0.0032592213298820397 -0.007612291249499921 0.003194914446682008 
0.0 0.01863017061523575 -0.006316863746689271 
-0.028051157654789643 0.0 0.0 
0.0 0.03245133924769782 -0.01622566962384891 
0.0 0.0 0.0 
0.0 0.0 0.0 
-0.024518789653816136 0.0 0.0 
0.0 0.0 0.0 
0.008142179297780792 -0.012692063920520674 0.003046826225592763 
0.0 0.024887493257632915 0.0 
0.0 0.0 0.0 
0.0077382503875281766 -0.002727529845461582 0.0026181657261573252 
-0.006464915240752301 -0.006727716673303208 0.019812705120585864 
0.0 0.0 0.027583638360543148 
0.0 -0.013455433346606416 0.013455433346606416 
0.0 0.0 0.0 
-0.025076034873221045 0.025076034873221045 0.0 
0.011769716498513138 -0.0060790387571444966 -0.0006079038757144488 
-0.024160851118723927 0.0 -0.024160851118723927 
0.011614163520228694 -0.011614163520228694 -0.022206280650677264 
0.009196494993593034 -0.0007200888392647938 0.0 
0.0 0.0 0.0 
-0.019470803548618694 0.019470803548618694 0.0 
0.0 0.0 0.0 
-0.017106132316615907 0.0 0.0 
0.0 0.0 0.0 
0.0 0.0 0.0 
0.0 -0.008520042736847306 0.008520042736847306 
-0.012929830481504602 0.012929830481504602 0.0 
0.0 0.0 0.0 
0.0 0.0 0.0 
0.0 0.0 -0.024160851118723927 
0.013907716820441923 0.0 0.0 
0.0 0.0 0.0 
0.0 0.0 0.0 
0.0 0.0 0.0 
0.005042633861985153 -0.004440472898372247 0.0006474247214138005 
0.0 0.0 0.0 
0.0 0.0 0.0 
-0.012929830481504602 0.025267454986757084 0.0002961029881260596 
0.014391463492457296 0.0 0.0 
0.0 0.0 0.0 
0.0 0.0 0.0 
0.0 0.0 0.013135065885972928 
0.0 0.0 0.0 
-0.013962241553720618 -0.002550105241344513 0.012811143781907999 
0.016779971610168934 -0.007164581392348871 0.015684624129196176 
0.0 0.0 0.018237116271433488 
-0.01067753742988767 0.0 0.0 
-0.025076034873221045 0.025076034873221045 0.0 
0.0 -0.010216162355756722 -0.010216162355756722 
-0.012929830481504602 0.025859660963009203 -0.012929830481504602 
0.0 0.0 0.0 
0.0 0.0 0.0 
0.0 0.0 0.0 
0.0 0.0 0.0 
0.0 0.0 -0.012080425559361964 
0.0 0.0 0.0 
0.0 0.0 0.0 
-0.010343864385203681 -0.010030413949288419 0.0203742783344921 
0.013135065885972928 0.01641883235746616 0.0 
0.0 0.0 0.0 
0.0 0.0 0.0 
0.0 0.0 0.0 
0.0 0.0 0.0 
0.0 0.0 0.0 
0.0 0.0 0.017653528550747616 
0.0 0.0 0.0 
0.0 0.0 0.0 
0.010343864385203681 -0.010343864385203681 0.0 
0.0 0.0 0.0 
0.0 0.0 0.0 
0.0 0.0 0.0 
0.0 0.015559634483908917 -0.0005872607698646616 
0.0 0.0 0.0 
0.02062328101722852 0.0 0.0 
0.0 0.0 0.0 
0.02375851710641098 -0.003326192394897537 0.0 
0.009735401774309347 0.0 -0.009735401774309347 
0.0 0.0 0.0 
-0.0024518789653816134 0.002980379927206428 0.0024518789653816134 
0.0 0.0 0.0 
0.0 0.025461820025116755 0.0 
-0.0046294218227485 0.01953240086224787 -0.005296058565224285 
-0.005254026354389171 0.005254026354389171 0.0 
0.0004497332341392903 0.0 0.016334757080369584 
0.0 0.0 0.0 
0.0 0.0 0.0 
0.0 0.0 0.0 
0.02062328101722852 0.0 0.0 
0.0 0.0 -0.020817840272108038 
0.0 0.0 0.0 
0.0 0.0 0.0 
0.0 -0.028290911139018618 0.0 
0.0016591982725196654 0.0029201856220323714 0.0015035369535612892 
0.0 0.0 0.0 
0.004797154497485765 0.0007906857842907532 0.004179339145536841 
0.0 0.025327874534788544 -0.00369364836965666 
0.0 0.0 0.0 
0.0 0.010241933391844576 4.9969477928963734e-05 
0.0 0.0 0.0 
0.0 0.024887493257632915 0.0 
0.0 0.023985772487428825 0.0 
0.0020160760208776975 -0.00988550612920582 0.0023571515003542034 
0.0 0.0 0.0 
0.0 0.0 0.0 
0.0 0.024518789653816136 -0.024518789653816136 
0.0 0.0 0.0 
0.0 0.0 0.0 
0.0 0.0 0.0 
-0.014776949121719543 -0.014776949121719543 0.042362503145736585 
0.019880099719310377 -0.019880099719310377 0.0 
0.0 0.0 0.0 
0.0 0.011992886243714413 0.0 
0.006575920596808924 -0.006758952458242784 0.0030395193785722483 
0.0 0.0 0.0 
-0.026693843574719177 0.0 0.0 
0.0 0.0 0.0 
-0.017106132316615907 0.017106132316615907 0.0 
-0.0066792071511245065 -0.008039800141982398 -0.006903100319635408 
0.0 0.007005368472518896 -0.007005368472518896 
0.0 0.0 0.0 
0.026693843574719177 0.0 0.0 
-0.012829599237461931 0.0 0.0 
-0.028534798304010154 0.0 0.0 
-0.009118558135716744 0.008426425753110783 -0.01854886184872295 
0.008443789407490979 -0.00015546586105757163 -0.0028795446744368665 
0.0 0.0 0.0 
-0.003310036603265178 0.007455037394741392 0.006729495904158957 
0.0 0.0 0.0 
0.0 0.0 0.0 
0.01723977397533947 -0.01723977397533947 0.0 
0.026910866693212833 -0.026910866693212833 0.0 
0.0 0.0 0.0 
-0.010852579027098944 0.020687728770407362 0.0 
0.0 0.022671483584008067 -0.022671483584008067 
0.027815433640883847 0.0 0.0 
0.0 0.0 0.0 
0.0 0.0 0.0 
0.0 0.0 0.027815433640883847 
0.0 0.0 0.0 
0.023028082841832755 -0.011413919321604061 -0.011614163520228694 
0.0 0.0 0.0 
0.0 0.0 0.0 
0.0 0.0 0.0 
-0.011573554556871252 0.023147109113742504 0.0 
-0.026693843574719177 0.0 0.0 
0.0 0.0 0.0 
-0.012829599237461931 0.0 0.0 
0.0 0.0 -0.027355674407150234 
0.014717523271385808 -0.0023435546610486944 -0.012373968610337113 
0.027131447567747363 -0.027131447567747363 0.0 
0.0 0.0 0.0 
0.0 0.0 0.0 
0.0 0.0 0.0 
-0.009735401774309347 0.009735401774309347 0.0 
0.0 0.0 0.0 
0.013455433346606416 0.008733043805268487 -0.013455433346606416 
0.0 0.0 0.0 
0.0 0.0 0.0 
-0.003218314636135322 -5.6070336199574335e-05 0.003274384972334896 
-0.025659198474923862 0.025659198474923862 0.0 
0.0 0.0 0.0 
0.0 0.012538017436610522 0.0 
0.01627188489906084 -0.01627188489906084 0.0 
0.006396811927492389 -0.008083117468291033 0.0 
-0.028051157654789643 0.0 0.0 
0.0 0.0 0.0 
0.029820149578965567 -0.029820149578965567 0.0 
0.0 -0.026910866693212833 0.0 
0.023742668567781802 -0.015861629036198047 -0.007881039531583757 
0.0 0.05092364005023351 0.0 
0.0 -0.00016981077867206373 -0.009764119773643594 
0.0 0.0 0.0 
-0.0018776572955035058 0.008353831466610478 -0.014298266526218014 
-0.008897947858239726 0.00927181121362795 0.018700771769859764 
-0.028051157654789643 0.0 0.0 
0.0 0.0 0.0 
0.014025578827394821 -0.028935653616877603 0.0 
0.0 0.0 0.0 
0.0 0.0 0.0 
0.0 0.0 0.0 
0.0 0.024338504435773366 0.0 
0.0 0.0 0.0 
0.0 0.013289454280983071 0.0 
-0.022986365300452623 0.045972730600905246 0.0 
0.0 0.0 0.0 
0.025461820025116755 0.0 -0.025461820025116755 
0.0 0.0 0.0 
0.0 -0.00396886882885513 0.004559279067858372 
-0.025859660963009203 0.025859660963009203 0.0 
0.0 0.0 0.0 
0.015467460762921392 -0.015467460762921392 -0.015467460762921392 
-0.013706155707102185 0.0 0.0 
0.0 0.0 0.0 
0.004076399757715736 0.0134135480575 -0.003502684236259448 
0.0 0.0 0.0 
0.0 0.0 0.0 
-0.0015656576264835883 0.0028983166767046556 0.00015517011453569218 
0.0 0.0 0.0 
0.0027155601357160782 -0.006196736417104119 -0.002404486329812422 
0.0 0.021156681373526966 -0.007005368472518896 
0.026910866693212833 -0.026910866693212833 0.0 
0.0004989288592346305 -0.0034419064754192073 0.0021343304759974635 
-0.028534798304010154 0.0 0.0 
-0.01622566962384891 0.0 0.017653528550747616 
0.0 0.0 0.0 
-0.01358490091865431 0.008881095684265785 0.0 
0.0 0.0 0.0 
0.0 0.0 0.0 
0.031226760408162055 0.0 0.0 
0.026063280340670694 0.0 -0.026063280340670694 
0.0 0.0 0.026480292826121424 
0.0 0.0 -0.03221446815829857 
0.0 0.015114322389338712 -0.015114322389338712 
-0.002348452182399185 -0.012169252217886683 0.002348452182399185 
0.0 -0.026063280340670694 0.026063280340670694 
0.025691714487564347 -0.008838549007383652 -0.016853165480180694 
0.0 0.0 0.0 
0.0 0.0 0.0 
0.0 0.0735563689614484 -0.024518789653816136 
0.0008461106933899327 -0.001572900734945786 0.0008305132927292989 
0.0 0.0 0.0 
0.0 0.025461820025116755 0.0 
0.0 0.024518789653816136 0.0 
0.040489744382448664 0.0 0.0 
0.0 0.019710013199299013 -0.012259394826908066 
0.0 -0.030091241847865255 0.0 
-0.0016051686211005721 0.006995335588277854 9.792326169722528e-05 
0.013565723783873681 -0.013565723783873681 0.0 
-0.013711551831396322 0.0 0.007195731746228648 
0.0 0.0 0.0 
-0.012829599237461931 0.012829599237461931 0.0 
0.0 0.0 0.0 
0.014391463492457296 -0.029301538281940077 0.0 
0.0 0.0 0.0 
0.0 -0.013871716709915514 -0.000673593122357586 
-0.009306848574210866 -0.0005006672873155878 -0.021028026067254676 
0.0 0.0 0.0 
0.017285724256947833 -0.00037187244166556315 -0.011583680151409197 
0.0 0.0 0.0 
-0.026270131771945857 0.0 0.0 
0.006267800678317923 0.0 0.0 
0.0 0.0 0.0 
-0.025461820025116755 0.0 0.0 
-0.00159887228997213 0.007357679653835025 -0.00035489216150150736 
-0.027355674407150234 0.027355674407150234 -0.027355674407150234 
0.0 0.0 0.0 
0.0 0.0 0.0 
0.0010078248664600693 -0.0029497763855358622 0.005731337856563025 
0.0 -0.029820149578965567 0.029820149578965567 
-0.015613380204081028 -0.015613380204081028 0.015613380204081028 
0.0 0.0 0.0 
-0.011781082862683132 0.011781082862683132 0.011963548274060369 
-0.00733119956426396 -0.007446651525905912 0.007446651525905912 
0.0 -0.01886060742601241 0.0 
0.0 0.0 0.0 
0.0 0.0 0.0 
0.0 0.0 0.0 
-0.006801843337177037 0.0180512698654604 -0.004834605568193501 
0.0 0.0 0.0 
0.0 0.0 0.0 
0.017653528550747616 0.0 -0.017653528550747616 
-0.010712092567201223 0.0 0.019190069034860632 
-0.004106745165341412 0.004307413262541655 -0.004775774500461863 
0.0 0.0 0.0 
0.0 0.0 0.0 
0.0 0.0 0.0 
-0.01372123161689944 0.0 0.0 
0.0 0.0 0.0 
0.0 0.018700771769859764 0.0 
0.0 0.0 0.0 
0.0 0.0 0.0 
0.013240146413060712 -0.0019044046210566785 -0.011335741792004033 
0.0 0.0 0.0 
0.0 0.0 0.0 
0.0 0.0 -0.026480292826121424 
0.0 0.0 0.0 
0.0 0.0 0.0 
-0.007009365648637555 -0.00627380836071411 0.00038584541670112814 
0.019528239547287187 -0.0012768464319380078 0.0 
0.0 0.0 0.0 
0.0 0.0 0.0 
-0.026270131771945857 0.0 0.0 
0.0 0.0 0.0 
0.030091241847865255 -0.030091241847865255 -0.030091241847865255 
0.0 0.0 0.0 
0.0 0.025659198474923862 -0.025659198474923862 
0.0 0.016717356582147364 -0.016717356582147364 
-0.019470803548618694 0.019470803548618694 0.0 
-0.0064147996187309654 0.025171954132298942 -0.014241502024132532 
-0.008205454913371373 0.007472334956944975 0.00466530881362252 
-0.015395519084954316 0.009737336857150593 -0.015395519084954316 
0.0 0.0 0.0 
0.0 -0.0063690413350431805 0.00040007349085480724 
0.0 0.0 0.0 
0.0 0.0 0.0 
-0.01760323359761158 0.00793773765771026 0.0 
0.0 0.0 0.0 
0.0 0.0 0.0 
0.0 0.009525285189252311 0.0 
0.0 0.0 0.0 
0.0 0.026480292826121424 -0.026480292826121424 
0.0 0.0 0.0 
-0.004887047436806934 -0.006103619435206019 0.0005598792566815104 
-0.018237116271433488 0.018237116271433488 0.0 
0.007881039531583757 0.0 -0.0003152415812633499 
0.0 0.0 0.0 
0.018007431835373452 0.009457247437900508 0.0 
0.0 0.0 0.0 
-0.014025578827394821 -0.0003658846650624742 -0.014025578827394821 
0.0 0.012287944102532374 -0.012287944102532374 
0.0 0.0 0.0 
0.0 0.0 0.017653528550747616 
0.0 -0.025267454986757084 0.025267454986757084 
-0.022365112184224177 0.0 0.0 
0.0 0.0 0.0 
0.0 0.0 0.0 
0.024338504435773366 -0.024338504435773366 -0.024338504435773366 
0.0 0.0 0.0 
0.0 0.0 -0.031827275031395943 
0.0 0.0 0.0 
0.012197009363601043 -0.005496359847194688 -0.0029715320032854594 
0.0 -0.025267454986757084 0.025267454986757084 
0.0 0.0 0.0 
-0.010133691777986932 0.008073374303709056 -0.00035082528916430093 
0.0 0.0 0.0 
0.0 0.011316364455607446 -0.011316364455607446 
0.0 -0.028534798304010154 0.0 
-0.011614163520228694 -0.011821559297375635 0.011614163520228694 
-0.00499251373041505 0.0028007353134864776 0.014128452371768286 
0.0 0.029820149578965567 0.0 
0.0 0.0 0.0 
0.030091241847865255 0.0 -0.030091241847865255 
0.0 0.0 0.0 
0.0 0.0 0.026270131771945857 
0.0 0.0 -0.019528239547287187 
0.010764346677285132 -0.010764346677285132 -0.010764346677285132 
0.0 0.0 0.0 
0.009081620214374045 -0.0030906037378759833 0.0 
0.0 -0.018087631711831576 0.018087631711831576 
-0.006903100319635408 0.0 0.0008487418425781245 
0.0 0.022671483584008067 -0.022671483584008067 
-0.008660466758360227 -0.004910167198056785 0.0 
0.0 0.0 0.0 
0.0 -0.028195541603860987 0.028195541603860987 
0.0 0.0 0.0 
0.0 0.0 0.0 
0.0 0.0 0.0 
-0.007048493059708245 0.006768544377299644 -0.002486879491559112 
0.0 0.0 0.0 
0.0 0.0 0.0 
0.0 0.0 0.0 
-0.012468957131641539 0.0 0.006810774903837815 
0.0 0.029035408800571736 -0.029035408800571736 
-0.025659198474923862 -0.025659198474923862 0.025659198474923862 
0.0 0.0 0.0 
0.0 0.0 0.0 
0.0 0.0 0.0 
0.0 0.0 0.0 
0.0 0.010384588260735978 -0.0051719321926018405 
0.030091241847865255 0.0 -0.030091241847865255 
-0.011445451708098426 0.01541361340567475 0.0 
0.0 0.0 0.017653528550747616 
0.0 -0.017106132316615907 0.0 
0.01751342118129724 0.0025474067172795954 0.0 
0.019356939200381156 0.0 -0.028113649791029774 
0.0 0.0 0.0 
-0.025659198474923862 0.025659198474923862 0.0 
0.0 0.0 0.0 
0.0006531698394293206 0.014129972009495954 -0.0054180071665362985 
-0.027815433640883847 0.0 0.0 
0.0 0.0 0.0 
0.0 0.025076034873221045 -0.025076034873221045 
0.009678469600190578 -0.009678469600190578 -0.009678469600190578 
0.0 0.0 -0.018087631711831576 
-0.019470803548618694 0.019470803548618694 0.0 
0.029037643152922683 -0.01464617966046539 -0.027781245546438318 
0.0 0.0 0.0 
0.0 0.0 0.0 
0.0 0.0 0.0 
0.0 0.0 0.0 
0.0 0.0 0.0 
0.059721344370765275 -0.025263778897955926 -0.016612114143615686 
0.0 0.0 0.0 
-0.027355674407150234 0.0 0.027355674407150234 
0.019452735991969807 -0.009043815855915788 -0.010408920136054019 
0.0 0.0 0.0 
0.012633520542545686 -0.020021095387665958 -0.006452313066793719 
0.02020416452915112 -0.014631712335101996 -0.010299642496014729 
-0.005188145146183664 0.008915923510478594 -0.01811163653162166 
0.0 0.0 0.0 
-0.017375520227113795 0.0005305502359424057 -0.0005305502359424057 
-0.006838918601787558 0.03381135690452556 -0.0070727277847546545 
-0.012829599237461931 0.0 0.0 
0.0 0.0 0.0 
0.0 0.0 0.0 
0.011126173456353538 -0.005563086728176769 0.0 
0.0 0.0 0.0 
-0.018237116271433488 0.018237116271433488 0.0 
0.02929235932093078 -0.02929235932093078 -0.02929235932093078 
-0.013973275081548385 -0.015431406075828333 0.0 
0.0 0.0 0.0 
-6.426575220917774e-05 -0.0007331293889784696 0.004597275914413455 
0.0 0.0 0.0 
-0.026270131771945857 0.0 0.0 
0.002882202310873466 -0.009175307597723332 0.011426728444563775 
-0.021848426424192595 0.0 0.0 
0.0 0.0 0.0 
0.0 0.0 0.0 
-0.0003128391533138977 0.008279950797773841 -0.0060130782206574505 
0.0 0.0 0.0 
-0.016345859769210755 0.0 0.0 
0.0 0.0 0.0 
-0.02878292698491459 0.0 0.02878292698491459 
0.0 0.0 0.0 
0.0 0.0 0.0 
-0.006861883720447617 -0.010754194269824251 0.0031250261052104557 
0.0 0.0 0.0 
-0.009118558135716744 0.02596352812688813 -0.01754104313130244 
0.0 0.0 0.0 
0.0 0.0 0.0 
0.0 0.0 0.017653528550747616 
-0.004276533079153977 0.004276533079153977 -0.004276533079153977 
0.0 0.0 0.0 
0.0 0.0 0.0 
0.0 0.0 0.0 
-0.023147109113742504 0.04629421822748501 0.0 
0.015467460762921392 0.0 0.0 
0.0 0.0 0.0 
0.0 0.0 0.0 
0.0 0.0 0.0 
0.0 0.0 0.0 
0.0 0.0 0.0 
0.0 0.0 0.0 
0.0 0.0 0.0 
0.028051157654789643 -0.028051157654789643 0.0 
0.0 0.0 0.0 
0.0 0.0 0.0 
0.0 0.0 0.028290911139018618 
0.0 0.024887493257632915 0.0 
0.0 0.0 0.0 
-0.0023467701783143413 0.02347868795568102 -0.0028051157654789645 
0.0 0.0 0.0 
0.0 0.0 0.0 
-0.017375520227113795 0.0 0.017375520227113795 
0.0 0.027815433640883847 0.0 
-0.014910074789482785 0.0 0.0 
0.0 0.0 0.0 
0.0 0.0 0.0 
-0.012829599237461931 0.0 0.012829599237461931 
-0.019470803548618694 0.019470803548618694 0.0 
0.0 0.0 0.0 
0.0 0.004903757930763227 0.0001886060742601241 
0.0 0.0 0.0 
0.0 0.0 0.0 
-0.016107234079149286 0.015990514991619218 -0.016107234079149286 
0.0 -0.018087631711831576 0.018087631711831576 
-0.02053846665806676 0.01962472294425995 0.0 
0.0 0.0 0.0 
0.0 0.0 0.0 
0.0 0.0 0.0 
-0.0069538584102209625 -0.0014034727932957375 -0.00647756673828802 
0.0 0.0 0.0 
0.005232488267091216 -0.010469685538172617 0.009910962214737452 
0.0 -0.0032950540184344297 0.006783317637545383 
-0.012259394826908066 0.0 0.0 
-0.019470803548618694 0.019470803548618694 0.0 
0.0 0.0 0.0 
0.0 0.006464915240752301 -0.006464915240752301 
0.0 0.0 0.030091241847865255 
0.0 0.0 0.0 
0.020060827898576834 0.0 0.0 
0.0 0.0 0.0 
0.0033996641116635813 -0.0033996641116635813 0.0 
-0.012259394826908068 0.02600947041269014 0.0 
0.0008491355724265324 -0.0006506534185002069 0.0 
0.0 0.0 0.0 
-0.006341066289780034 0.012811037575147354 -0.0005982138009226453 
-0.011493182650226311 0.0 0.0 
0.0 0.0 0.0 
-0.008946044873689671 0.009390174761035966 0.0 
-0.001473175168024208 0.003999522222203597 0.0024885689051672424 
-0.004309943493834867 -3.393656294358154e-05 0.004343880056778449 
0.0 0.0 0.0 
0.0 -0.01886060742601241 -0.01751342118129724 
-5.163000691563689e-05 -0.015966314840502274 -0.0001788097454698532 
0.0 0.0 0.0 
0.0 0.0 0.0 
0.007236168846934381 0.005817011224508959 -0.000895102557154347 
-0.011979822359599745 -0.015653849632198145 0.007388925545084937 
0.11126173456353539 -0.05563086728176769 0.0 
-0.028290911139018618 0.028290911139018618 0.0 
0.0 0.0 0.0 
0.0 0.024887493257632915 0.0 
0.0 0.014910074789482784 0.0 
0.012490704163264822 0.020850624272536554 -0.012490704163264822 
-0.014670333327190544 0.038550352148844086 0.0005872607698646616 
-0.025659198474923862 -0.025659198474923862 0.025659198474923862 
0.031226760408162055 0.0 0.0 
-0.012829599237461931 0.0 0.0 
-0.019892504273180678 0.012636672933139194 0.00028004314378190544 
0.013565723783873681 -0.013565723783873681 -0.013135065885972928 
0.001020042096537806 0.0 0.014025578827394821 
0.0 0.0 0.0 
0.027815433640883847 0.0 -0.027815433640883847 
0.0 0.0 0.0 
0.0004783918359731569 0.005131839694984772 -0.004832170223744785 
0.0 0.0 0.0 
-0.008520042736847306 0.006707267686454262 0.0 
0.0 0.026480292826121424 -0.026480292826121424 
0.0 0.0 0.0 
0.0 0.0 0.0 
-0.007682180186997543 0.008062316460700119 -0.017106132316615907 
0.0 0.0 0.0 
0.0 0.0 -0.027355674407150234 
0.0 0.0 0.025461820025116755 
0.0367781844807242 0.0 0.0 
0.0 0.0 0.0 
0.014025578827394821 0.0 -0.014025578827394821 
0.029820149578965567 -0.029820149578965567 0.0 
0.0 0.0 0.0 
0.0 0.0 0.0 
-0.022365112184224177 0.0 0.0 
0.0 0.0 0.0 
0.03310036603265178 -0.03310036603265178 0.0 
-0.014145455569509309 0.013565723783873681 0.0 
0.009015526388653635 -0.00025271313202513204 0.0 
-0.006269008718305261 0.006554081458699464 -0.007012789413697411 
0.0 0.0 0.0 
0.0 0.0 0.0 
0.017476316475404662 0.0 0.0 
-0.008553066158307953 0.008553066158307953 0.0 
0.0 0.0 0.0 
0.020075760282257854 -0.009764119773643594 -0.009764119773643594 
-0.009044306786536649 0.007416979611863758 -0.0032682236417475056 
0.0 0.0 0.0 
0.0 0.028290911139018618 -0.028290911139018618 
0.0 0.0 0.0 
0.0 0.0 -0.031827275031395943 
-0.014910074789482784 0.012443746628816458 0.014910074789482784 
0.0 0.04728623718950254 0.0 
0.0 -0.017106132316615907 0.0 
0.0 0.0 0.0 
0.0 0.023813212973130778 0.0 
0.0 0.0 0.0 
-0.0031167952949766272 -0.0033133499532183967 0.015606878572473731 
0.0 0.0 0.0 
0.0 0.005356167217608686 -0.0005678035498778468 
0.0 0.0 0.0 
0.0 0.0 0.0 
0.0 0.016345859769210755 -0.016345859769210755 
0.0 0.0 0.0 
-0.030648487067270164 0.0 0.030648487067270164 
0.0 0.0 0.0 
0.0 0.05053490997351417 -0.025267454986757084 
0.026693843574719177 0.0 0.0 
0.0 0.0 0.0 
0.0 0.0 0.0 
0.0 0.016717356582147364 -0.016717356582147364 
0.0 0.0 0.0 
-0.014267399152005077 0.0 0.0 
0.0 -0.006895909590135787 0.0 
0.0 0.0 0.0 
0.02062328101722852 -0.0002948319873626532 0.0002948319873626532 
-0.00733119956426396 -0.00733119956426396 0.00733119956426396 
0.055167276721086296 0.0 0.0 
0.01622566962384891 -0.01622566962384891 -0.01622566962384891 
0.0 0.0 0.0 
0.0 0.0 0.0 
0.0 0.025659198474923862 -0.025659198474923862 
-0.023147109113742504 0.04629421822748501 0.0 
0.0 0.0 -0.00927181121362795 
0.0 0.0 0.0 
0.0 0.0 0.0 
0.007278048095130683 -0.011084471741353196 0.010305020073157489 
0.0 0.023813212973130778 0.0 
0.007012789413697411 -0.007012789413697411 0.0 
-0.020559233560653277 0.0 0.0 
-0.01684496999117139 -0.01684496999117139 0.0 
0.0 0.0 0.0 
0.0 -0.025659198474923862 0.0 
0.0 0.0 0.0 
0.0 0.0 0.0 
0.0 0.0 0.0 
0.0 0.0 0.0 
0.0 0.0 0.0 
0.0 0.0 0.0 
0.0 0.008757262194465352 -0.013531940273403648 
0.0 0.0 -0.00927181121362795 
0.0 0.0 0.0 
0.0010225216933938334 0.010073733088593807 -0.003084742928102632 
0.0 0.0 0.0 
0.0 0.0 0.0 
0.0 0.0 0.0 
0.0 0.0 0.0 
-0.015865686818852177 0.014572884936884727 -0.005423184184584252 
0.0 0.0 0.0 
0.0 -0.018237116271433488 0.018237116271433488 
-0.028534798304010154 0.0 0.0 
-3.0215293074442205e-05 -0.00258255933031421 -0.00010138558574078601 
-0.009735401774309347 0.01933227282357277 -0.01933227282357277 
0.0 -0.017940577795475223 0.017940577795475223 
0.0 0.0 0.0 
-0.028290911139018618 0.0 0.0 
0.0 0.0 0.0 
0.0 0.027131447567747363 0.0 
0.0 0.0 0.0 
0.0 0.0 0.0 
0.0 0.0 0.0 
0.0 0.0 0.0 
0.018087631711831576 0.0 0.0 
0.0 0.0 0.0 
0.0 -0.013791819180271574 0.027031965593332284 
-0.0026480292826121426 -0.014091508509026119 0.013640837099244955 
0.0 0.0 0.0 
-0.025267454986757084 0.0 0.0 
0.0 0.0 0.013677837203575117 
0.0 0.0 0.0 
-0.026270131771945857 0.0 0.0 
0.004386014495719374 -0.016379124281390125 0.0003194135128598884 
-0.01886060742601241 0.035577964008159775 0.0 
0.0 0.0 0.013240146413060712 
0.0 0.0 0.0 
-0.009043815855915788 0.017940577795475223 0.00927181121362795 
-0.006375764326933413 -0.0004004021036924355 0.009619475677038393 
0.0 0.0 0.0 
0.0 0.0 0.0 
0.0 0.0 0.0 
0.0 0.0 0.0 
0.0 0.0 0.0 
-0.007626812449919765 0.007164581392348871 -0.007164581392348871 
0.0 0.0 0.0 
-0.011182556092112089 0.0 0.0 
0.0 0.0 0.0 
0.0 0.0 0.0 
-0.019702598828959392 0.0 0.038725797698299494 
0.018087631711831576 -0.017106132316615907 0.0 
-0.018700771769859764 -0.019702598828959392 0.018700771769859764 
0.0 0.0 0.0 
0.0 -0.0004218398389887641 0.015467460762921392 
0.0 -0.027815433640883847 0.0 
0.0 0.0 0.0 
-0.018237116271433488 0.0 0.05326395863402797 
0.0 0.0 0.0 
0.0 0.0 0.0 
0.0 0.0016008882671012265 0.0 
0.0 0.0 0.0 
0.023310116924402664 0.0 0.0 
0.0 0.0 0.0 
0.0 0.0 0.0 
0.008232563189876134 0.0015246291548042488 -0.006088316412374263 
0.0 0.023813212973130778 0.0 
0.0 0.0 0.0 
0.0 0.01587547531542052 0.0 
0.0 0.0 0.0 
-0.026480292826121424 0.0 0.026480292826121424 
0.0 0.0 0.0 
0.0 0.0 0.0 
0.0 0.0 0.0 
-0.011064735788601895 -0.004542439851124255 0.015220270584349218 
-0.006286869142004138 0.005408556541282971 0.0 
-0.024160851118723927 0.0 -0.024160851118723927 
0.0 0.0 0.0 
0.0 -0.008223693424261313 -0.007947266754538242 
0.0 0.0 0.0 
0.0 0.000941988453453663 -0.006982201233134645 
0.013135065885972928 -0.013135065885972928 0.0 
0.01250092231426135 -0.008081647810569526 0.0 
0.006341066289780034 -0.006341066289780034 0.0058845095169158725 
0.005215815253629977 0.0 0.009747589162521598 
0.0 -0.008597497670818645 0.008597497670818645 
-0.01751342118129724 0.0 0.0 
0.0185436224272559 0.0 -0.0185436224272559 
0.0 0.0 0.0 
0.0 -0.029820149578965567 0.0 
0.01059211713044857 -0.01059211713044857 0.0 
0.0 0.0 0.0 
0.0 0.0 0.0 
0.0 0.05212656068134139 0.0 
0.0 0.0 -0.01464617966046539 
0.0 0.0 0.0 
0.0 0.0 0.0 
-0.0019650916610472902 -0.006957202905025376 -0.0011682372314700616 
0.013455433346606416 -0.026802355133966005 -0.026802355133966005 
0.0 0.0 0.0 
-0.0024153323633297327 0.010015769095889599 -0.000595456320164106 
0.0 0.0 -0.018087631711831576 
-0.015324243533635082 0.0 0.015324243533635082 
-0.028290911139018618 0.0 0.0 
-0.017106132316615907 0.0 0.0 
0.0 0.0 0.0 
0.0 0.0 0.0 
-0.015324243533635082 0.01270790927179494 0.0 
0.0 0.0 0.0 
0.0 0.008553066158307953 0.008826764275373808 
0.0 0.0 0.0 
0.0 0.0 0.0 
0.0 0.0 0.0 
0.0 0.0 0.0 
0.029878188749300864 -0.01966202639354414 0.008389131261245504 
0.005862768821270029 -0.011233258284325424 -0.0015796167690075007 
0.0 -0.02244737466582132 0.0 
-0.014145455569509309 0.0 0.0 
0.0 0.0 0.0 
0.00022149333320230756 0.0008812403783416885 0.004503415354805982 
0.0 0.0 0.0 
-0.005231883908716252 0.0057465913251131566 -0.006129697413454034 
0.002375841509745178 -0.008485757106370891 0.0076789810628025805 
0.0 -0.006686942632858945 0.0008024331159430728 
0.0 0.0 0.0 
-0.028051157654789643 0.0 0.0 
0.0 0.0 0.0 
0.0 0.0 0.0 
0.0 -0.010174793523692919 -0.00010111201427359488 
-0.017444470704205517 0.00875671059064862 0.008687760113556897 
0.0 0.016591662171755277 0.0 
0.011716943728372311 -0.022569522755471257 0.010852579027098944 
0.0 0.0 0.0 
-0.003978409378924493 0.006052793857700359 0.008812026920007588 
0.0 0.0 0.0 
-0.019470803548618694 0.019470803548618694 0.0 
-0.004559279067858372 0.004559279067858372 0.0 
0.0 0.0 0.0 
0.02867175848786021 -0.01464617966046539 -0.01464617966046539 
0.0 0.0 0.0 
0.013110045731443337 0.005610231530957929 0.0007661078591628045 
0.0 0.0 -0.024160851118723927 
0.0 0.0 0.0 
-0.016107234079149286 0.0 -0.016107234079149286 
0.05563086728176769 -0.027815433640883847 0.0 
0.0 0.0 0.0 
0.0 0.0 0.0 
0.02584107430630182 -0.021350765252353913 -0.0045065168186047356 
0.0 -0.030091241847865255 0.0 
0.0066266999064367935 -0.006335963270225535 0.0 
-0.031226760408162055 -0.031226760408162055 0.031226760408162055 
-0.006604757619253714 -0.006302949117999125 0.006687573940199648 
0.0 0.0 0.0 
0.008223693424261313 0.0 0.007274805721461931 
0.0 -0.02929235932093078 -0.02929235932093078 
0.0 0.0 0.0 
-0.010110381191399587 0.029203908384967517 -0.0026597321038691665 
-0.019470803548618694 0.019470803548618694 0.0 
0.0 0.0 -0.02929235932093078 
0.0 0.0 0.0 
0.0 0.0 0.0 
-0.01886060742601241 0.0 0.0 
0.0 0.0 0.0 
0.0 0.0 0.019023198869340105 
0.01527104319736604 -0.010368326788741585 -0.004946867890594112 
-0.011413919321604061 -0.010942269762860092 0.010942269762860092 
0.0 0.0 0.017653528550747616 
0.00045985504352114015 -0.012633727493378542 -0.0013918513340162794 
0.019023198869340105 -0.019023198869340105 0.0 
0.0 0.0 0.0 
0.0 0.0 0.0 
0.031226760408162055 0.0 0.0 
0.0 0.0 0.027583638360543148 
0.015045620923932627 0.0 0.0 
0.0 0.0 0.0 
-0.00639003205263548 0.008520042736847306 0.0 
0.0 0.0 0.0 
0.0 0.0 0.0 
0.0185436224272559 0.0 0.0 
0.0 0.0 -0.012080425559361964 
-0.00011648803620734841 0.0039299644651377 -0.004080749087382521 
0.0 0.0 0.0 
0.0 0.0 0.0 
-0.007255560203680285 0.007418475749552816 0.008562978055457278 
0.023888306491289434 -0.015131595900640815 0.0 
0.0 0.0 0.0 
0.0 0.0 -0.00927181121362795 
-0.000154530186893799 0.013307873139726846 -0.007899316598443878 
0.0 0.0 0.017653528550747616 
0.0012829599237461943 -0.017106132316615907 -0.0012829599237461943 
0.0 0.0 0.0 
-0.020244872191224332 0.0 0.020244872191224332 
0.0 0.0 -0.05471134881430047 
0.0 0.0 0.0 
0.0 0.0 0.0 
0.0 0.0 0.0 
0.0 0.0 0.0 
0.0 0.0035822906961744355 0.003973633377269121 
0.0 0.022671483584008067 -0.022671483584008067 
0.0 0.0 0.0 
0.0 0.0 0.0 
0.0 0.0 0.0 
0.0 0.0 0.0 
0.0 -0.018237116271433488 0.03693788804129325 
-0.015324243533635082 0.0 -0.016107234079149286 
0.02206691068843452 0.0 -0.012036496739146101 
-0.012829599237461931 -0.012829599237461931 0.012829599237461931 
0.0 0.0 -0.027355674407150234 
0.028051157654789643 -0.028051157654789643 0.0 
0.007881039531583757 -0.007881039531583757 0.006935725793766671 
0.01103345534421726 -0.01103345534421726 0.0 
0.0027506056033588305 -0.0031433888520248938 -0.0020044926949804773 
0.0030602469311188708 -0.002177001344833376 -0.001757022305410276 
-0.012566730085514812 0.012769883811074745 0.0 
-0.0005144970567990733 -0.0012178656127106845 -0.0037874278184532447 
0.0 0.03475104045422759 0.0 
0.017653528550747616 -0.017653528550747616 0.0 
-0.019470803548618694 0.019470803548618694 0.0 
0.0 -0.011126173456353538 0.01059211713044857 
0.0 0.012829599237461931 -0.012829599237461931 
-0.010263679389969544 0.03047764337937521 -0.010106981994702833 
0.0 0.0 0.0 
0.0 0.0 -0.027355674407150234 
0.0 0.0 0.0 
0.0 0.0 0.0 
0.0 0.01622566962384891 0.0 
0.0 0.0 0.0 
0.0 0.0 0.0 
0.0 0.0 0.0 
0.014267399152005077 -0.014267399152005077 0.0 
0.0 0.027019060967198697 -0.019356939200381156 
0.0 -0.02878292698491459 0.0 
0.0 0.0 0.0 
0.0 0.0 0.0 
0.0 0.008687760113556897 0.0 
0.0 0.011992886243714413 0.0 
-0.013565723783873681 0.0 0.0 
0.0 0.0 0.0 
0.0 0.051055225683438246 -0.017106132316615907 
0.0 0.0 0.0 
0.0 0.0 0.0 
0.027583638360543148 0.0 0.0 
0.0 0.017653528550747616 -0.017653528550747616 
-0.0025022684713491205 -0.0005619648727811899 0.005704446399905585 
-0.011413919321604061 -0.010764346677285132 0.010764346677285132 
-0.014893303051811824 -0.008520042736847306 0.03136061254319737 
0.0 0.0 0.0 
0.012777087151135093 -0.005837807060432413 0.0 
0.0 0.054262895135494725 0.0 
-0.020559233560653277 0.0 0.0 
0.0 0.0 0.0 
0.0 5.0496363131428273e-05 -0.005807081760114347 
0.013346921787359588 0.0 0.0 
0.0 0.0 0.0 
0.0 0.0 0.0 
0.0 0.009194546120181049 0.0 
-0.008897947858239726 0.0 0.0 
0.0 0.0 0.0 
0.026910866693212833 -0.026910866693212833 -0.026910866693212833 
-0.00966434044748957 0.0 -0.00966434044748957 
0.0 0.0 0.0 
-0.013346921787359588 0.0 0.0 
0.0 0.0 0.0 
0.013135065885972928 -0.013135065885972928 -0.013907716820441923 
-0.004718030621265991 -0.013758969291391225 0.017371060316025443 
0.008687760113556897 0.0 -0.008687760113556897 
0.0 0.0 0.0 
0.004587715319840857 -0.012482853312125123 0.0037662170016612437 
-0.012169252217886683 0.0 0.0 
0.0 -0.014025578827394821 0.0 
0.0 -0.029820149578965567 0.029820149578965567 
0.0 0.0 0.0 
0.0 -0.00919454612018105 -0.00875671059064862 
0.0 0.0 0.0 
0.0 0.0 0.0 
0.0 0.0 -0.020060827898576834 
0.0 0.0 0.0 
0.0 0.0 0.0 
0.0 0.0 0.0 
0.0 0.016717356582147364 0.0 
0.0 0.0 0.0 
0.0 0.0 0.0 
0.029437084416389925 -0.014391463492457296 -0.015045620923932627 
0.0 0.0 0.0 
-0.006592855815342034 -0.0004199335983553756 -0.0002460627864455233 
0.0 0.0 0.0 
0.0 0.0 0.0 
0.0 0.0 0.0 
0.0 0.0 -0.00927181121362795 
0.0 0.0 0.0 
0.0 0.0 0.0 
0.0 0.0 0.0 
0.016964147771970042 -0.010716839654347218 -0.008640474068489466 
0.0 0.0 0.0 
0.004676217829481922 -0.0037087244854511797 0.0 
-0.028290911139018618 0.0 0.0 
0.0 0.0 0.0 
0.0 0.0 0.0 
0.0 0.025076034873221045 0.0 
0.0 0.0 0.0 
0.0 0.0 0.0 
0.0 0.0 0.0 
0.0 0.0 0.0 
0.0 0.0 0.0 
0.008143185062197605 -0.008401663875493515 0.0 
0.0 0.0 0.0 
0.0 0.0 0.0 
0.0 0.0 0.0 
0.0 0.0 0.0 
0.0 0.0 0.0 
0.0 0.0 0.0 
-0.008324239498650923 0.0015909942091621807 0.003203096566503044 
0.012490704163264822 -0.012146923314734598 0.0 
0.0183890922403621 0.0 0.0 
0.0 0.0 0.0 
0.0 0.012784828803472936 0.0 
0.0 -0.027497708022971364 0.03315589025077509 
0.012868557302779277 -0.0013957685110229674 -0.00838566353172283 
0.02350014206669065 -0.012373968610337113 -0.012373968610337113 
-0.0044405478421328925 0.012183139115019753 -0.002950121749790711 
-0.00942751866326018 0.024050419487094778 -0.003353472700513178 
0.0 0.0 0.0 
-0.025659198474923862 0.025659198474923862 0.0 
0.0 -0.027131447567747363 0.0 
0.0 0.0 0.0 
0.0 -0.0022884655719477183 -0.03676801352262665 
0.0 0.0 0.0 
0.0 -0.02713144756774736 0.02713144756774736 
0.0 0.0 0.0 
0.0 0.0 0.0 
0.0 0.0 0.0 
0.0017513421181297242 0.010508052708778342 0.0 
0.0 0.0 0.0 
-0.015261727496781907 -0.001341774861288213 0.008796812256029605 
-0.012829599237461931 0.012829599237461931 0.0 
0.0 0.0 0.0 
0.015613380204081028 0.0 0.0 
0.009986474146929901 0.008917169024202214 -0.006572540152432176 
0.0 0.0 0.0 
0.0 0.0 0.0 
0.0 -0.008687760113556897 0.01780631824927364 
0.0 0.0 0.0 
-0.008857891070162417 -0.012428687785493511 0.024791102736997445 
0.0 0.0 0.0 
0.0 0.0 0.0 
0.005623484720504772 0.0018921843164408556 -0.007846342024284806 
0.004711615752106903 -0.001728665201098747 -0.0014378615335672639 
0.0 0.0 0.0 
0.029820149578965567 -0.029820149578965567 0.0 
0.0 -0.027815433640883847 0.0 
0.0 0.0 0.0 
0.0 0.0 0.0 
-0.019011099040999437 -0.005865821942585512 0.024064975252496977 
0.0 0.0 0.0 
-0.009678469600190578 0.0 0.009678469600190578 
0.0 0.027131447567747363 0.0 
0.0 0.0 0.0 
0.0 0.0 0.0 
0.0 0.0 0.0 
0.0 0.0 0.0 
-0.012929830481504602 0.0 0.012929830481504602 
-0.012829599237461931 0.012829599237461931 0.0 
0.026270131771945857 -0.026270131771945857 0.0 
0.015045620923932627 -0.015045620923932627 0.0 
0.0 0.059107796486878174 0.0 
0.0 0.00959430899497153 0.0 
0.0 -0.014910074789482784 0.028817791609924707 
0.015045620923932627 0.0 0.0 
0.0 0.0 0.0 
0.0 0.0 0.0 
0.0 0.0 0.0 
-0.0076063771259236475 -0.005225259905436431 0.004772730248846099 
0.0 0.0 0.0 
0.0 0.0 0.0 
0.0 -0.011513170793965837 0.01103345534421726 
0.0 0.01337388526571789 0.0 
0.0 0.0 0.0 
0.0 0.0 0.0 
-0.016717356582147364 0.016717356582147364 0.0 
0.0 0.024518789653816136 0.0 
0.0 0.0 0.0 
0.0 0.0 0.0 
-0.01751342118129724 0.0 0.0 
0.0 0.03245133924769782 -0.01622566962384891 
0.010343864385203681 -0.010343864385203681 0.0 
0.0 0.0 0.0 
-0.006838918601787558 0.00027138565880109426 -0.006838918601787558 
0.0 0.016717356582147364 0.0 
0.0 0.019615031723052907 -0.019615031723052907 
0.010484278833871607 0.006490267849539565 0.0 
-0.01697454668341117 -0.020060827898576834 0.0 
-0.00822369342426131 0.0010191914616507047 0.010106981994702833 
0.0 0.024887493257632915 0.0 
0.0 0.025076034873221045 0.0 
-0.012889383412527076 -0.021608726117959328 0.029928493030128046 
0.0 0.0 0.0 
0.0 0.0 0.0 
0.0 0.0 0.0 
0.0 0.0 0.0 
0.0 0.0 0.0 
0.0 0.0 0.0 
0.008615335747637797 -0.008369245520265937 0.0 
0.021038368241092235 0.0 0.0 
-0.013706155707102185 0.0 0.0 
0.0 0.0 0.0 
0.0 0.0 0.0 
0.009485550410101884 -0.006598611336260664 -0.0023013274867480686 
0.0 -0.0183890922403621 0.0 
0.0 -0.025659198474923862 0.0 
0.0 0.0 0.0 
-0.0355917914329589 0.0 0.0 
0.0 0.015377638110407333 0.0 
0.0 0.012538017436610522 -0.012538017436610522 
0.027583638360543148 0.0 0.0 
-0.031226760408162055 -0.031226760408162055 0.031226760408162055 
0.0 0.0 0.0 
-0.026270131771945857 0.0 0.0 
0.0 0.0 0.0 
0.0 0.0 0.0 
0.03202739747224723 0.0 -0.008014616472797042 
-0.02719722963350968 -0.0013375686705004754 0.014267399152005077 
-0.014776949121719543 0.027685272989727172 -0.027299787360464928 
0.0 0.0018558017786883749 -0.0018558017786883749 
0.0 0.007420566856136032 0.0 
0.0 0.0 0.0 
0.005015206974644209 0.0 0.0 
0.0 0.03447954795067894 0.0 
0.0022548698796227215 -0.011488149148012524 -0.0020448921735556316 
0.012373968610337113 0.0 0.0 
0.0 -0.029820149578965567 0.0 
0.016295611613920978 -0.009155348132104248 -0.006689091899813303 
0.0 0.0 0.0 
0.0 0.0 0.0 
-0.013677837203575117 0.0 0.013677837203575117 
0.0 0.0 0.0 
0.0 0.0 0.0 
0.0004486360264658682 0.0 0.0 
0.0 0.0 0.0 
0.0 0.0 0.0 
0.0 0.0 0.0 
0.030934921525842783 -0.030934921525842783 -0.030934921525842783 
0.0 0.011056905565827795 -0.008332538303071787 
-0.00875671059064862 0.006567532942986464 0.0 
0.0 0.0 0.0 
-0.022986365300452623 0.045972730600905246 0.0 
0.0 0.0 0.0 
0.0 0.0 0.0 
0.0 0.0 0.0 
0.0 -0.010030413949288417 0.018857178224662225 
-0.004853426104494395 -0.005143802025276112 0.0 
0.0 0.0 0.0 
0.0 0.0 0.0 
-0.007505751934841673 0.014836951499105633 0.0 
0.0 0.0 0.0 
0.0 0.0 0.0 
0.0 0.0 0.0 
0.0 0.0 0.0 
0.0 0.009068593433603226 -0.009068593433603226 
0.0 0.0 0.0 
-0.02411238657361669 0.012929830481504602 0.0 
-0.027355674407150234 0.027355674407150234 -0.027355674407150234 
0.0 0.0 0.0 
0.0 0.0 0.0 
0.0 0.0 0.0 
0.0 -0.025076034873221045 0.025076034873221045 
0.055167276721086296 0.0 0.0 
-0.013078399884590699 -0.008536411252489155 0.010687417664453809 
0.0 0.0 0.0 
0.0 -0.014776949121719543 0.0 
0.061869843051685566 -0.030934921525842783 -0.030934921525842783 
0.0 0.0 0.0 
0.013565723783873681 0.0 0.0 
0.0 -0.0031781641221562454 0.005759089348873733 
0.01059211713044857 -0.021718290586802108 -0.012490704163264822 
0.0 0.0 0.0 
0.0 0.0 0.0 
0.0 -0.0010784580411640939 0.0 
0.006108988976246418 0.008222324131977344 0.0 
0.0 0.0 0.0 
0.0 0.0 0.0 
0.0 0.0 0.0 
0.0 -0.020432324711513444 -0.020432324711513444 
0.0 -0.01435094698487718 0.007455037394741392 
0.0 -0.029035408800571736 0.029035408800571736 
0.005844001677114053 -0.0006010566681728599 -0.00785621045860049 
0.0 0.027815433640883847 0.0 
0.006535971245268141 -0.005500796841523737 -0.00019494237588871146 
0.0 0.0 0.0 
0.0 0.0 0.0 
0.0 0.0 0.0 
0.0 0.035881155590950446 0.0 
0.0 0.0 0.0 
-0.027355674407150234 0.0 0.027355674407150234 
0.0 0.0 0.008597497670818645 
0.0 0.0 -0.024160851118723927 
0.0 0.0723505268473263 0.0 
0.0 0.0 0.0 
-0.011748133463230444 0.016029232945594083 -0.023976499700132325 
0.0 -0.005188145146183664 0.0 
-0.014025578827394821 0.0 0.014025578827394821 
-0.004041558734145517 -0.00023773874906738313 0.004243636670852792 
0.0 0.0 0.0 
0.0 0.0 0.0 
0.0 0.0 0.0 
0.0 0.0 0.0 
0.0 0.0 0.0 
0.0 0.0 0.0 
0.0 0.0 0.0 
0.0 0.0 0.0 
-0.01864258543493692 0.008802123533564462 -0.004343880056778449 
0.0 0.051719321926018406 0.0 
0.0 0.0 0.0 
0.005964029915793113 -0.005964029915793113 0.0 
-0.013907716820441923 0.0 0.0 
0.0 0.0 0.0 
0.0 0.0 0.0 
-0.007788321419447478 0.030814663007379152 0.0 
-0.01722730247258422 0.015431406075828335 0.0 
0.0 0.0 0.0 
0.0 0.0 0.0 
0.0 0.0 0.0 
0.0016881051628239371 -0.014517704400285868 0.012829599237461931 
-0.025659198474923862 0.025659198474923862 0.0 
0.01103345534421726 0.005749649083365966 0.0 
0.0 0.0 0.0 
0.0 0.0 0.0 
0.0 0.0 0.0 
0.0024221072306712804 -0.019528239547287187 -0.0024221072306712804 
0.0 0.0 -0.03465085650640519 
-0.024338504435773366 0.0 0.0 
0.003973633377269121 0.0 -0.003973633377269121 
0.06245352081632411 0.0 0.0 
0.0 0.0 0.0 
-0.027355674407150234 0.027355674407150234 0.0 
0.0 0.0 0.0 
-0.01423848600555845 -0.005784374504826804 0.02865578008845046 
0.0 0.0 0.0 
-0.013706155707102185 0.0 0.0 
0.01464617966046539 -0.0013697865869500003 -0.006838918601787558 
0.0 0.0 0.0 
0.0 0.005408556541282971 0.006341066289780034 
-0.004126027306390377 0.005443134513890274 0.006064145931525275 
0.0 0.0 0.0 
0.0 0.0 0.0 
0.0 0.0 0.0 
0.0 0.0 -0.01059211713044857 
0.0 0.025859660963009203 -0.025859660963009203 
0.0 0.0 0.0 
-0.004234860333854512 0.028125164353546915 -0.007195706727690923 
0.0 0.0 0.0 
0.0 0.0 0.0 
0.0 0.0 0.0 
0.0 -0.013135065885972928 0.0 
0.0 0.0 0.0 
0.0 0.0 0.0 
-0.04031242443082382 0.0 0.020432324711513444 
0.0 0.0 0.0 
0.0 0.0 0.0 
0.0 0.0 0.0 
0.0 0.0 0.0 
-0.025076034873221045 0.025076034873221045 0.0 
0.0033870086222196924 -0.0065130155140186744 -0.006953858410220962 
0.0 0.0 0.0 
0.009479332946912323 -0.0011034792894871188 -0.008660640484156474 
0.011413919321604061 -0.0225400927779576 0.0 
0.0 0.0 0.0 
0.0 0.0 0.0 
0.0 0.022671483584008067 -0.022671483584008067 
0.0 0.0 0.0 
0.009511599434670052 0.01212262673046183 -0.010817113082565942 
0.0031404521852610797 0.00570064222361367 -0.003605704360855314 
-0.003324693729595727 0.011748413628987656 -0.0037443852978112876 
0.013791819180271574 -0.009426323989405388 0.0 
0.0 0.0 0.0 
-0.021615867723507102 0.0 0.028235940930037458 
0.0 0.0 0.0 
0.0 0.0 0.0 
0.026063280340670694 0.0 -0.026063280340670694 
-0.017375520227113795 0.017375520227113795 -0.017375520227113795 
0.0 -0.028290911139018618 0.0 
0.012373968610337113 -0.012373968610337113 -0.012373968610337113 
0.0 0.0 0.0 
0.005115588439274438 -0.008468294735305974 0.0003841002873168865 
0.017068377233596804 0.0 -0.004674678868701387 
0.018700771769859764 -0.018700771769859764 0.0 
-0.003947568996142133 0.011938663280948007 -0.012527977018765549 
-0.018237116271433488 0.018237116271433488 -0.018237116271433488 
0.0 -0.008897947858239726 -0.008897947858239726 
0.004882059886821797 -0.004882059886821797 0.0 
0.0 0.0 0.0 
0.0 0.0 0.0 
0.0 0.0 0.0 
0.020628640347174005 0.006458148573116893 -0.004546753575913706 
0.0 0.0 0.0 
-0.016345859769210755 0.0 0.0 
-0.012829599237461931 0.012829599237461931 0.0 
0.0 0.027131447567747363 0.0 
0.0 0.0 0.0 
0.017106132316615907 -0.017106132316615907 0.0 
0.0 0.0 0.0 
-0.036474232542866976 0.036474232542866976 0.0 
0.0 0.024887493257632915 0.0 
0.0 0.0 0.0 
-0.004715151856503103 0.004521907927957894 -0.004635905606813975 
0.0 0.0 0.0 
0.0 0.0 0.0 
0.0 0.0 0.0 
0.0 0.0 0.0 
0.0 0.0 0.0 
0.0 0.0 0.0 
0.0 0.05092364005023351 0.0 
-0.0036005109423238165 0.00518237851956102 0.0 
0.0 -0.019880099719310377 0.019880099719310377 
0.0 0.0 0.0 
0.0 0.0 0.0 
0.0 0.0 0.0 
0.0 0.0 0.0 
0.0 0.0 0.0 
0.01067753742988767 0.0 0.0 
0.0 0.0 0.0 
0.0 0.01059211713044857 -0.01059211713044857 
0.0 0.0 0.0 
0.0 0.0185436224272559 0.0 
0.0 0.0 0.0 
0.0 0.0 0.0 
0.0 0.0 0.0 
-0.004421098554620862 -0.007510687606540841 0.009406100652771823 
0.010852579027098944 0.0 0.0 
0.0 0.030091241847865255 0.0 
0.0 0.0 0.0 
-0.002807016776333498 0.01768700411033115 -0.01003495259813425 
-0.0018312421973513417 -0.006199617163153505 0.0019110155212199006 
-0.016717356582147364 0.016717356582147364 0.0 
-0.009144562732034832 -0.009486731071202171 0.009389919483092458 
-0.012633727493378542 -0.012633727493378542 0.0 
-0.020941216819857215 -0.010263679389969544 0.010263679389969544 
0.0 -0.025076034873221045 0.025076034873221045 
-0.007219272853359167 -0.00819167796232651 0.0 
-0.002472474088386959 -0.0059860356985524145 0.010207634777662743 
0.0 0.01587547531542052 0.0 
0.0 0.0 0.0 
-0.0010389317649922084 -0.012490704163264822 0.012259394826908066 
0.0 0.028051157654789643 -0.028051157654789643 
-0.019470803548618694 0.019470803548618694 0.0 
0.0 0.0 0.0 
0.0 0.0 0.0 
0.0 0.0 0.0 
0.0 0.0 0.0 
0.006129697413454034 0.0 0.0 
0.0 0.0 0.0 
0.0 0.0185436224272559 0.0 
0.0 0.0 0.0 
0.0 0.0 0.0 
0.020632811483364755 0.0 -0.008687760113556897 
0.0 -0.015467460762921392 0.0008212811024560021 
0.0 0.0 0.0 
-0.0018936640335529388 -0.010911787189867454 0.008338807446990382 
0.0 0.0 0.0 
