-3.166262783992568 4.608498759053448 -1.4422359750608644 
-2.973049639862219 -6.533817580451172 9.506867220313426 
-0.6430906462802523 0.7018757607576886 -0.058785114477438144 
2.4724455694749743 -5.1595955579319615 2.6871499884569783 
-3.8690838523956166 4.1096626366145355 -0.24057878421890705 
3.058360412129878 -1.7421940878177065 -1.3161663243121693 
5.097757185403345 1.4887335440934593 -6.586490729496781 
-5.096695157717897 -0.9802468296624107 6.076941987380301 
-1.2158537835487624 2.4984810297606597 -1.2826272462119004 
13.7891460797041 -8.980991082472382 -4.80815499723173 
0.34382066801941674 -0.24307067718635772 -0.10074999083305983 
1.4415081509402115 -6.938724970169528 5.49721681922928 
1.43640245556061 0.9154975439702645 -2.3518999995308754 
-1.2863811507308325 -0.43225754409264633 1.7186386948234735 
0.15153623838126562 -2.6121868498005862 2.4606506114193243 
0.03578116927756587 0.3141555103807098 -0.34993667965827535 
-0.40655912179840653 -2.0034051906153247 2.4099643124137464 
-0.7782489088899083 -3.2541034632597037 4.032352372149631 
