-5.298254605921305 7.63503977233574 -2.3367851664144217 
-2.756129523002802 -9.275954139379067 12.032083662381835 
-0.7260859833456345 0.6758642395416847 0.05022174380395182 
2.728846056529453 -5.455478889023294 2.726632832493846 
-3.9823531394838816 4.580237617901401 -0.5978844784174938 
3.1592811680844064 -1.3989663755020347 -1.7603147925823575 
5.547365719001998 1.8681644560051107 -7.415530175007066 
-6.753928752148687 -0.5666620939608551 7.320590846109576 
-1.1051074026784393 3.194879651262437 -2.089772248583985 
19.59864311725059 -12.914658568493957 -6.6839845487566425 
0.34872611679471244 -0.270280195560604 -0.07844592123410916 
1.6625484391211454 -7.333435037926516 5.670886598805342 
1.8434241579662334 0.6854496920670021 -2.528873850033253 
-1.2761173562881447 -0.497372463912825 1.7734898202009635 
0.19531416855224143 -3.2153499419693166 3.0200357734170837 
0.08532862378751963 0.2503301904698816 -0.3356588142573998 
-0.5757054016754553 -1.8978806322260575 2.4735860339015208 
-0.7394651271872404 -3.320290059917585 4.0597551871048445 
